{"learner":{"attributes":{"scikit_learn":"{\"_estimator_type\": \"regressor\"}"},"feature_names":[],"feature_types":[],"gradient_booster":{"model":{"gbtree_model_param":{"num_parallel_tree":"1","num_trees":"900"},"iteration_indptr":[0,1,2,3,4,5,6,7,8,9,10,11,12,13,14,15,16,17,18,19,20,21,22,23,24,25,26,27,28,29,30,31,32,33,34,35,36,37,38,39,40,41,42,43,44,45,46,47,48,49,50,51,52,53,54,55,56,57,58,59,60,61,62,63,64,65,66,67,68,69,70,71,72,73,74,75,76,77,78,79,80,81,82,83,84,85,86,87,88,89,90,91,92,93,94,95,96,97,98,99,100,101,102,103,104,105,106,107,108,109,110,111,112,113,114,115,116,117,118,119,120,121,122,123,124,125,126,127,128,129,130,131,132,133,134,135,136,137,138,139,140,141,142,143,144,145,146,147,148,149,150,151,152,153,154,155,156,157,158,159,160,161,162,163,164,165,166,167,168,169,170,171,172,173,174,175,176,177,178,179,180,181,182,183,184,185,186,187,188,189,190,191,192,193,194,195,196,197,198,199,200,201,202,203,204,205,206,207,208,209,210,211,212,213,214,215,216,217,218,219,220,221,222,223,224,225,226,227,228,229,230,231,232,233,234,235,236,237,238,239,240,241,242,243,244,245,246,247,248,249,250,251,252,253,254,255,256,257,258,259,260,261,262,263,264,265,266,267,268,269,270,271,272,273,274,275,276,277,278,279,280,281,282,283,284,285,286,287,288,289,290,291,292,293,294,295,296,297,298,299,300,301,302,303,304,305,306,307,308,309,310,311,312,313,314,315,316,317,318,319,320,321,322,323,324,325,326,327,328,329,330,331,332,333,334,335,336,337,338,339,340,341,342,343,344,345,346,347,348,349,350,351,352,353,354,355,356,357,358,359,360,361,362,363,364,365,366,367,368,369,370,371,372,373,374,375,376,377,378,379,380,381,382,383,384,385,386,387,388,389,390,391,392,393,394,395,396,397,398,399,400,401,402,403,404,405,406,407,408,409,410,411,412,413,414,415,416,417,418,419,420,421,422,423,424,425,426,427,428,429,430,431,432,433,434,435,436,437,438,439,440,441,442,443,444,445,446,447,448,449,450,451,452,453,454,455,456,457,458,459,460,461,462,463,464,465,466,467,468,469,470,471,472,473,474,475,476,477,478,479,480,481,482,483,484,485,486,487,488,489,490,491,492,493,494,495,496,497,498,499,500,501,502,503,504,505,506,507,508,509,510,511,512,513,514,515,516,517,518,519,520,521,522,523,524,525,526,527,528,529,530,531,532,533,534,535,536,537,538,539,540,541,542,543,544,545,546,547,548,549,550,551,552,553,554,555,556,557,558,559,560,561,562,563,564,565,566,567,568,569,570,571,572,573,574,575,576,577,578,579,580,581,582,583,584,585,586,587,588,589,590,591,592,593,594,595,596,597,598,599,600,601,602,603,604,605,606,607,608,609,610,611,612,613,614,615,616,617,618,619,620,621,622,623,624,625,626,627,628,629,630,631,632,633,634,635,636,637,638,639,640,641,642,643,644,645,646,647,648,649,650,651,652,653,654,655,656,657,658,659,660,661,662,663,664,665,666,667,668,669,670,671,672,673,674,675,676,677,678,679,680,681,682,683,684,685,686,687,688,689,690,691,692,693,694,695,696,697,698,699,700,701,702,703,704,705,706,707,708,709,710,711,712,713,714,715,716,717,718,719,720,721,722,723,724,725,726,727,728,729,730,731,732,733,734,735,736,737,738,739,740,741,742,743,744,745,746,747,748,749,750,751,752,753,754,755,756,757,758,759,760,761,762,763,764,765,766,767,768,769,770,771,772,773,774,775,776,777,778,779,780,781,782,783,784,785,786,787,788,789,790,791,792,793,794,795,796,797,798,799,800,801,802,803,804,805,806,807,808,809,810,811,812,813,814,815,816,817,818,819,820,821,822,823,824,825,826,827,828,829,830,831,832,833,834,835,836,837,838,839,840,841,842,843,844,845,846,847,848,849,850,851,852,853,854,855,856,857,858,859,860,861,862,863,864,865,866,867,868,869,870,871,872,873,874,875,876,877,878,879,880,881,882,883,884,885,886,887,888,889,890,891,892,893,894,895,896,897,898,899,900],"tree_info":[0,0,0,0,0,0,0,0,0,0,0,0,0,0,0,0,0,0,0,0,0,0,0,0,0,0,0,0,0,0,0,0,0,0,0,0,0,0,0,0,0,0,0,0,0,0,0,0,0,0,0,0,0,0,0,0,0,0,0,0,0,0,0,0,0,0,0,0,0,0,0,0,0,0,0,0,0,0,0,0,0,0,0,0,0,0,0,0,0,0,0,0,0,0,0,0,0,0,0,0,0,0,0,0,0,0,0,0,0,0,0,0,0,0,0,0,0,0,0,0,0,0,0,0,0,0,0,0,0,0,0,0,0,0,0,0,0,0,0,0,0,0,0,0,0,0,0,0,0,0,0,0,0,0,0,0,0,0,0,0,0,0,0,0,0,0,0,0,0,0,0,0,0,0,0,0,0,0,0,0,0,0,0,0,0,0,0,0,0,0,0,0,0,0,0,0,0,0,0,0,0,0,0,0,0,0,0,0,0,0,0,0,0,0,0,0,0,0,0,0,0,0,0,0,0,0,0,0,0,0,0,0,0,0,0,0,0,0,0,0,0,0,0,0,0,0,0,0,0,0,0,0,0,0,0,0,0,0,0,0,0,0,0,0,0,0,0,0,0,0,0,0,0,0,0,0,0,0,0,0,0,0,0,0,0,0,0,0,0,0,0,0,0,0,0,0,0,0,0,0,0,0,0,0,0,0,0,0,0,0,0,0,0,0,0,0,0,0,0,0,0,0,0,0,0,0,0,0,0,0,0,0,0,0,0,0,0,0,0,0,0,0,0,0,0,0,0,0,0,0,0,0,0,0,0,0,0,0,0,0,0,0,0,0,0,0,0,0,0,0,0,0,0,0,0,0,0,0,0,0,0,0,0,0,0,0,0,0,0,0,0,0,0,0,0,0,0,0,0,0,0,0,0,0,0,0,0,0,0,0,0,0,0,0,0,0,0,0,0,0,0,0,0,0,0,0,0,0,0,0,0,0,0,0,0,0,0,0,0,0,0,0,0,0,0,0,0,0,0,0,0,0,0,0,0,0,0,0,0,0,0,0,0,0,0,0,0,0,0,0,0,0,0,0,0,0,0,0,0,0,0,0,0,0,0,0,0,0,0,0,0,0,0,0,0,0,0,0,0,0,0,0,0,0,0,0,0,0,0,0,0,0,0,0,0,0,0,0,0,0,0,0,0,0,0,0,0,0,0,0,0,0,0,0,0,0,0,0,0,0,0,0,0,0,0,0,0,0,0,0,0,0,0,0,0,0,0,0,0,0,0,0,0,0,0,0,0,0,0,0,0,0,0,0,0,0,0,0,0,0,0,0,0,0,0,0,0,0,0,0,0,0,0,0,0,0,0,0,0,0,0,0,0,0,0,0,0,0,0,0,0,0,0,0,0,0,0,0,0,0,0,0,0,0,0,0,0,0,0,0,0,0,0,0,0,0,0,0,0,0,0,0,0,0,0,0,0,0,0,0,0,0,0,0,0,0,0,0,0,0,0,0,0,0,0,0,0,0,0,0,0,0,0,0,0,0,0,0,0,0,0,0,0,0,0,0,0,0,0,0,0,0,0,0,0,0,0,0,0,0,0,0,0,0,0,0,0,0,0,0,0,0,0,0,0,0,0,0,0,0,0,0,0,0,0,0,0,0,0,0,0,0,0,0,0,0,0,0,0,0,0,0,0,0,0,0,0,0,0,0,0,0,0,0,0,0,0,0,0,0,0,0,0,0,0,0,0,0,0,0,0,0,0,0,0,0,0,0,0,0,0,0,0,0,0,0,0,0,0,0,0,0,0,0,0,0,0,0,0,0,0,0,0,0,0,0,0,0,0,0,0,0,0,0,0,0,0,0,0,0,0,0,0,0,0,0,0,0,0,0,0,0,0,0,0,0,0,0,0,0,0,0,0,0,0,0,0,0,0,0,0,0,0,0,0,0,0,0,0,0,0,0,0,0,0,0,0,0,0,0,0,0,0,0,0,0,0,0,0,0,0,0,0,0,0,0,0,0,0,0,0,0,0,0,0,0,0,0,0,0],"trees":[{"base_weights":[-8.870945E0,1.1769121E3,-4.9152534E3,4.4298625E0,1.677185E1,-5.315225E1,-1.0866255E1],"categories":[],"categories_nodes":[],"categories_segments":[],"categories_sizes":[],"default_left":[0,0,0,0,0,0,0],"id":0,"left_children":[1,3,5,-1,-1,-1,-1],"loss_changes":[8.668348E8,4.331661E7,3.863328E7,0E0,0E0,0E0,0E0],"parents":[2147483647,0,0,1,1,2,2],"right_children":[2,4,6,-1,-1,-1,-1],"split_conditions":[1.4586241E0,-6.728801E-1,2.6285356E-1,4.4298625E0,1.677185E1,-5.315225E1,-1.0866255E1],"split_indices":[23,24,15,0,0,0,0],"split_type":[0,0,0,0,0,0,0],"sum_hessian":[1.47E2,1.19E2,2.8E1,4.9E1,7E1,2.5E1,3E0],"tree_param":{"num_deleted":"0","num_feature":"25","num_nodes":"7","size_leaf_vector":"1"}},{"base_weights":[-9.166145E1,-5.0164863E3,1.2334314E3,-5.2742207E1,-7.669785E0,-1.4383201E1,1.3149277E1],"categories":[],"categories_nodes":[],"categories_segments":[],"categories_sizes":[],"default_left":[0,0,0,0,0,0,0],"id":1,"left_children":[1,3,5,-1,-1,-1,-1],"loss_changes":[9.85065E8,3.1002688E7,2.7802112E7,0E0,0E0,0E0,0E0],"parents":[2147483647,0,0,1,1,2,2],"right_children":[2,4,6,-1,-1,-1,-1],"split_conditions":[-4.9280983E-1,4.4262746E-1,-1.0651182E0,-5.2742207E1,-7.669785E0,-1.4383201E1,1.3149277E1],"split_indices":[19,1,15,0,0,0,0],"split_type":[0,0,0,0,0,0,0],"sum_hessian":[1.49E2,3.1E1,1.18E2,2.9E1,2E0,3E0,1.15E2],"tree_param":{"num_deleted":"0","num_feature":"25","num_nodes":"7","size_leaf_vector":"1"}},{"base_weights":[-1.2621924E2,-4.807651E3,1.0550343E3,-5.227043E1,-1.6652805E1,4.9351144E0,1.4147297E1],"categories":[],"categories_nodes":[],"categories_segments":[],"categories_sizes":[],"default_left":[0,0,0,0,0,0,0],"id":2,"left_children":[1,3,5,-1,-1,-1,-1],"loss_changes":[8.235061E8,3.0832064E7,2.3337112E7,0E0,0E0,0E0,0E0],"parents":[2147483647,0,0,1,1,2,2],"right_children":[2,4,6,-1,-1,-1,-1],"split_conditions":[-4.9280983E-1,1.9363819E0,-6.728801E-1,-5.227043E1,-1.6652805E1,4.9351144E0,1.4147297E1],"split_indices":[19,23,24,0,0,0,0],"split_type":[0,0,0,0,0,0,0],"sum_hessian":[1.47E2,2.9E1,1.18E2,2.5E1,4E0,4.7E1,7.1E1],"tree_param":{"num_deleted":"0","num_feature":"25","num_nodes":"7","size_leaf_vector":"1"}},{"base_weights":[4.9693657E1,-4.872112E3,1.1344248E3,-5.0496704E1,-3.9013672E-1,7.070902E0,1.5998302E1],"categories":[],"categories_nodes":[],"categories_segments":[],"categories_sizes":[],"default_left":[0,0,0,0,0,0,0],"id":3,"left_children":[1,3,5,-1,-1,-1,-1],"loss_changes":[8.277078E8,2.3831488E7,2.4127024E7,0E0,0E0,0E0,0E0],"parents":[2147483647,0,0,1,1,2,2],"right_children":[2,4,6,-1,-1,-1,-1],"split_conditions":[-6.700865E-1,2.944808E0,-8.030473E-2,-5.0496704E1,-3.9013672E-1,7.070902E0,1.5998302E1],"split_indices":[19,20,4,0,0,0,0],"split_type":[0,0,0,0,0,0,0],"sum_hessian":[1.53E2,2.7E1,1.26E2,2.6E1,1E0,6.7E1,5.9E1],"tree_param":{"num_deleted":"0","num_feature":"25","num_nodes":"7","size_leaf_vector":"1"}},{"base_weights":[-1.469751E2,-4.788532E3,9.650811E2,-5.250879E1,-1.6115608E1,2.7345078E1,8.27622E0],"categories":[],"categories_nodes":[],"categories_segments":[],"categories_sizes":[],"default_left":[0,0,0,0,0,0,0],"id":4,"left_children":[1,3,5,-1,-1,-1,-1],"loss_changes":[7.4790214E8,3.2666048E7,2.619404E7,0E0,0E0,0E0,0E0],"parents":[2147483647,0,0,1,1,2,2],"right_children":[2,4,6,-1,-1,-1,-1],"split_conditions":[-6.700865E-1,1.9363819E0,-8.210505E-1,-5.250879E1,-1.6115608E1,2.7345078E1,8.27622E0],"split_indices":[19,23,3,0,0,0,0],"split_type":[0,0,0,0,0,0,0],"sum_hessian":[1.43E2,2.7E1,1.16E2,2.3E1,4E0,7E0,1.09E2],"tree_param":{"num_deleted":"0","num_feature":"25","num_nodes":"7","size_leaf_vector":"1"}},{"base_weights":[-9.420647E0,1.110625E3,-4.7596343E3,5.91885E0,1.4949298E1,-5.201442E1,-1.5986687E1],"categories":[],"categories_nodes":[],"categories_segments":[],"categories_sizes":[],"default_left":[0,0,0,0,0,0,0],"id":5,"left_children":[1,3,5,-1,-1,-1,-1],"loss_changes":[8.0867514E8,2.363576E7,3.2184256E7,0E0,0E0,0E0,0E0],"parents":[2147483647,0,0,1,1,2,2],"right_children":[2,4,6,-1,-1,-1,-1],"split_conditions":[1.4586241E0,-4.41342E-1,1.9363819E0,5.91885E0,1.4949298E1,-5.201442E1,-1.5986687E1],"split_indices":[23,15,23,0,0,0,0],"split_type":[0,0,0,0,0,0,0],"sum_hessian":[1.5E2,1.22E2,2.8E1,5.3E1,6.9E1,2.4E1,4E0],"tree_param":{"num_deleted":"0","num_feature":"25","num_nodes":"7","size_leaf_vector":"1"}},{"base_weights":[-5.178458E1,-4.83853E3,9.8256665E2,-5.198623E1,-1.4683378E1,4.645979E0,1.382905E1],"categories":[],"categories_nodes":[],"categories_segments":[],"categories_sizes":[],"default_left":[0,0,0,0,0,0,0],"id":6,"left_children":[1,3,5,-1,-1,-1,-1],"loss_changes":[7.523817E8,2.513344E7,2.5277848E7,0E0,0E0,0E0,0E0],"parents":[2147483647,0,0,1,1,2,2],"right_children":[2,4,6,-1,-1,-1,-1],"split_conditions":[-6.700865E-1,1.9363819E0,-5.503089E-1,-5.198623E1,-1.4683378E1,4.645979E0,1.382905E1],"split_indices":[19,23,24,0,0,0,0],"split_type":[0,0,0,0,0,0,0],"sum_hessian":[1.5E2,2.6E1,1.24E2,2.3E1,3E0,5.5E1,6.9E1],"tree_param":{"num_deleted":"0","num_feature":"25","num_nodes":"7","size_leaf_vector":"1"}},{"base_weights":[-8.426934E1,-4.517294E3,1.00706433E3,-4.895017E1,-1.5741328E1,5.7113767E0,1.5594216E1],"categories":[],"categories_nodes":[],"categories_segments":[],"categories_sizes":[],"default_left":[0,0,0,0,0,0,0],"id":7,"left_children":[1,3,5,-1,-1,-1,-1],"loss_changes":[7.5926304E8,2.6757248E7,2.9448544E7,0E0,0E0,0E0,0E0],"parents":[2147483647,0,0,1,1,2,2],"right_children":[2,4,6,-1,-1,-1,-1],"split_conditions":[-4.9280983E-1,1.9363819E0,-8.030473E-2,-4.895017E1,-1.5741328E1,5.7113767E0,1.5594216E1],"split_indices":[19,23,4,0,0,0,0],"split_type":[0,0,0,0,0,0,0],"sum_hessian":[1.55E2,3E1,1.25E2,2.6E1,4E0,7.1E1,5.4E1],"tree_param":{"num_deleted":"0","num_feature":"25","num_nodes":"7","size_leaf_vector":"1"}},{"base_weights":[8.7979195E1,-4.571756E3,1.1430131E3,-4.8401157E1,-6.325996E0,-1.4549519E1,1.2170037E1],"categories":[],"categories_nodes":[],"categories_segments":[],"categories_sizes":[],"default_left":[0,0,0,0,0,0,0],"id":8,"left_children":[1,3,5,-1,-1,-1,-1],"loss_changes":[7.721494E8,2.7594432E7,2.6375536E7,0E0,0E0,0E0,0E0],"parents":[2147483647,0,0,1,1,2,2],"right_children":[2,4,6,-1,-1,-1,-1],"split_conditions":[-4.9280983E-1,4.4262746E-1,-1.0651182E0,-4.8401157E1,-6.325996E0,-1.4549519E1,1.2170037E1],"split_indices":[19,1,15,0,0,0,0],"split_type":[0,0,0,0,0,0,0],"sum_hessian":[1.55E2,2.8E1,1.27E2,2.6E1,2E0,3E0,1.24E2],"tree_param":{"num_deleted":"0","num_feature":"25","num_nodes":"7","size_leaf_vector":"1"}},{"base_weights":[-1.4338344E2,-4.4924277E3,8.74888E2,-4.904969E1,-1.5312337E1,-1.4440395E1,9.443163E0],"categories":[],"categories_nodes":[],"categories_segments":[],"categories_sizes":[],"default_left":[0,0,0,0,0,0,0],"id":9,"left_children":[1,3,5,-1,-1,-1,-1],"loss_changes":[6.7706355E8,2.7916224E7,2.132752E7,0E0,0E0,0E0,0E0],"parents":[2147483647,0,0,1,1,2,2],"right_children":[2,4,6,-1,-1,-1,-1],"split_conditions":[-4.9280983E-1,1.9363819E0,-1.0651182E0,-4.904969E1,-1.5312337E1,-1.4440395E1,9.443163E0],"split_indices":[19,23,15,0,0,0,0],"split_type":[0,0,0,0,0,0,0],"sum_hessian":[1.51E2,2.8E1,1.23E2,2.4E1,4E0,3E0,1.2E2],"tree_param":{"num_deleted":"0","num_feature":"25","num_nodes":"7","size_leaf_vector":"1"}},{"base_weights":[-3.0121572E1,-4.428097E3,1.0876437E3,-4.8028183E1,-1.5189837E1,6.4080615E0,1.4570694E1],"categories":[],"categories_nodes":[],"categories_segments":[],"categories_sizes":[],"default_left":[0,0,0,0,0,0,0],"id":10,"left_children":[1,3,5,-1,-1,-1,-1],"loss_changes":[7.520336E8,2.649792E7,1.9205232E7,0E0,0E0,0E0,0E0],"parents":[2147483647,0,0,1,1,2,2],"right_children":[2,4,6,-1,-1,-1,-1],"split_conditions":[-4.9280983E-1,1.9363819E0,-2.041504E-1,-4.8028183E1,-1.5189837E1,6.4080615E0,1.4570694E1],"split_indices":[19,23,17,0,0,0,0],"split_type":[0,0,0,0,0,0,0],"sum_hessian":[1.51E2,3E1,1.21E2,2.6E1,4E0,5.6E1,6.5E1],"tree_param":{"num_deleted":"0","num_feature":"25","num_nodes":"7","size_leaf_vector":"1"}},{"base_weights":[1.8018892E2,-4.519788E3,1.1109266E3,-7.2866893E0,-4.8313137E1,3.6409807E0,1.5970042E1],"categories":[],"categories_nodes":[],"categories_segments":[],"categories_sizes":[],"default_left":[0,0,0,0,0,0,0],"id":11,"left_children":[1,3,5,-1,-1,-1,-1],"loss_changes":[6.349414E8,2.482432E7,4.334355E7,0E0,0E0,0E0,0E0],"parents":[2147483647,0,0,1,1,2,2],"right_children":[2,4,6,-1,-1,-1,-1],"split_conditions":[-4.9280983E-1,-2.4428532E0,-4.7691908E-1,-7.2866893E0,-4.8313137E1,3.6409807E0,1.5970042E1],"split_indices":[19,19,16,0,0,0,0],"split_type":[0,0,0,0,0,0,0],"sum_hessian":[1.43E2,2.3E1,1.2E2,2E0,2.1E1,4.8E1,7.2E1],"tree_param":{"num_deleted":"0","num_feature":"25","num_nodes":"7","size_leaf_vector":"1"}},{"base_weights":[1.4569713E2,-4.1124497E3,1.118784E3,-4.3750076E1,-5.5364647E0,6.0902567E0,1.6536303E1],"categories":[],"categories_nodes":[],"categories_segments":[],"categories_sizes":[],"default_left":[0,0,0,0,0,0,0],"id":12,"left_children":[1,3,5,-1,-1,-1,-1],"loss_changes":[6.012717E8,2.2806464E7,3.1164704E7,0E0,0E0,0E0,0E0],"parents":[2147483647,0,0,1,1,2,2],"right_children":[2,4,6,-1,-1,-1,-1],"split_conditions":[-6.700865E-1,4.4262746E-1,-8.030473E-2,-4.3750076E1,-5.5364647E0,6.0902567E0,1.6536303E1],"split_indices":[19,1,4,0,0,0,0],"split_type":[0,0,0,0,0,0,0],"sum_hessian":[1.43E2,2.6E1,1.17E2,2.4E1,2E0,6.1E1,5.6E1],"tree_param":{"num_deleted":"0","num_feature":"25","num_nodes":"7","size_leaf_vector":"1"}},{"base_weights":[-7.6375534E1,-4.607591E3,1.01024945E3,-5.2302567E1,-1.9034613E1,2.1838486E1,8.106167E0],"categories":[],"categories_nodes":[],"categories_segments":[],"categories_sizes":[],"default_left":[0,0,0,0,0,0,0],"id":13,"left_children":[1,3,5,-1,-1,-1,-1],"loss_changes":[7.382909E8,3.887373E7,2.6578672E7,0E0,0E0,0E0,0E0],"parents":[2147483647,0,0,1,1,2,2],"right_children":[2,4,6,-1,-1,-1,-1],"split_conditions":[-4.9280983E-1,2.3470976E0,-1.1756351E0,-5.2302567E1,-1.9034613E1,2.1838486E1,8.106167E0],"split_indices":[19,22,0,0,0,0,0],"split_type":[0,0,0,0,0,0,0],"sum_hessian":[1.48E2,2.8E1,1.2E2,2.2E1,6E0,1.6E1,1.04E2],"tree_param":{"num_deleted":"0","num_feature":"25","num_nodes":"7","size_leaf_vector":"1"}},{"base_weights":[8.575902E1,-4.4531436E3,9.635647E2,-4.9865974E1,-1.4286999E1,4.3601027E0,1.3385204E1],"categories":[],"categories_nodes":[],"categories_segments":[],"categories_sizes":[],"default_left":[0,0,0,0,0,0,0],"id":14,"left_children":[1,3,5,-1,-1,-1,-1],"loss_changes":[5.8997926E8,3.1597248E7,2.39448E7,0E0,0E0,0E0,0E0],"parents":[2147483647,0,0,1,1,2,2],"right_children":[2,4,6,-1,-1,-1,-1],"split_conditions":[-4.9280983E-1,1.9363819E0,-6.728801E-1,-4.9865974E1,-1.4286999E1,4.3601027E0,1.3385204E1],"split_indices":[19,23,24,0,0,0,0],"split_type":[0,0,0,0,0,0,0],"sum_hessian":[1.46E2,2.3E1,1.23E2,1.9E1,4E0,5.2E1,7.1E1],"tree_param":{"num_deleted":"0","num_feature":"25","num_nodes":"7","size_leaf_vector":"1"}},{"base_weights":[7.041542E1,1.0066367E3,-4.0585012E3,-1.4608278E1,1.0830438E1,-4.7217243E1,-1.4890447E1],"categories":[],"categories_nodes":[],"categories_segments":[],"categories_sizes":[],"default_left":[0,0,0,0,0,0,0],"id":15,"left_children":[1,3,5,-1,-1,-1,-1],"loss_changes":[5.645945E8,2.4017432E7,3.898045E7,0E0,0E0,0E0,0E0],"parents":[2147483647,0,0,1,1,2,2],"right_children":[2,4,6,-1,-1,-1,-1],"split_conditions":[1.4586241E0,-1.0651182E0,1.5475403E0,-1.4608278E1,1.0830438E1,-4.7217243E1,-1.4890447E1],"split_indices":[23,15,14,0,0,0,0],"split_type":[0,0,0,0,0,0,0],"sum_hessian":[1.44E2,1.18E2,2.6E1,3E0,1.15E2,2E1,6E0],"tree_param":{"num_deleted":"0","num_feature":"25","num_nodes":"7","size_leaf_vector":"1"}},{"base_weights":[-6.580256E1,-4.3125557E3,1.0218927E3,-4.5516506E1,-4.8408985E0,1.979145E1,8.423629E0],"categories":[],"categories_nodes":[],"categories_segments":[],"categories_sizes":[],"default_left":[0,0,0,0,0,0,0],"id":16,"left_children":[1,3,5,-1,-1,-1,-1],"loss_changes":[7.24998E8,2.7088384E7,1.9814768E7,0E0,0E0,0E0,0E0],"parents":[2147483647,0,0,1,1,2,2],"right_children":[2,4,6,-1,-1,-1,-1],"split_conditions":[-4.9280983E-1,4.4262746E-1,-1.1756351E0,-4.5516506E1,-4.8408985E0,1.979145E1,8.423629E0],"split_indices":[19,1,0,0,0,0,0],"split_type":[0,0,0,0,0,0,0],"sum_hessian":[1.55E2,3.1E1,1.24E2,2.9E1,2E0,1.8E1,1.06E2],"tree_param":{"num_deleted":"0","num_feature":"25","num_nodes":"7","size_leaf_vector":"1"}},{"base_weights":[2.495026E0,-4.082241E3,9.690929E2,-4.314031E1,-4.808626E0,5.1377006E0,1.3585346E1],"categories":[],"categories_nodes":[],"categories_segments":[],"categories_sizes":[],"default_left":[0,0,0,0,0,0,0],"id":17,"left_children":[1,3,5,-1,-1,-1,-1],"loss_changes":[6.3963194E8,2.3803168E7,2.2531192E7,0E0,0E0,0E0,0E0],"parents":[2147483647,0,0,1,1,2,2],"right_children":[2,4,6,-1,-1,-1,-1],"split_conditions":[-4.9280983E-1,4.4262746E-1,-2.041504E-1,-4.314031E1,-4.808626E0,5.1377006E0,1.3585346E1],"split_indices":[19,1,17,0,0,0,0],"split_type":[0,0,0,0,0,0,0],"sum_hessian":[1.6E2,3E1,1.3E2,2.8E1,2E0,6.1E1,6.9E1],"tree_param":{"num_deleted":"0","num_feature":"25","num_nodes":"7","size_leaf_vector":"1"}},{"base_weights":[5.736536E0,-4.074618E3,9.77204E2,-4.578992E1,-1.7632467E1,5.7187552E0,1.3037524E1],"categories":[],"categories_nodes":[],"categories_segments":[],"categories_sizes":[],"default_left":[0,0,0,0,0,0,0],"id":18,"left_children":[1,3,5,-1,-1,-1,-1],"loss_changes":[6.183911E8,2.6899968E7,1.5931696E7,0E0,0E0,0E0,0E0],"parents":[2147483647,0,0,1,1,2,2],"right_children":[2,4,6,-1,-1,-1,-1],"split_conditions":[-4.9280983E-1,2.3470976E0,-2.156423E-1,-4.578992E1,-1.7632467E1,5.7187552E0,1.3037524E1],"split_indices":[19,22,16,0,0,0,0],"split_type":[0,0,0,0,0,0,0],"sum_hessian":[1.54E2,2.9E1,1.25E2,2.3E1,6E0,5.7E1,6.8E1],"tree_param":{"num_deleted":"0","num_feature":"25","num_nodes":"7","size_leaf_vector":"1"}},{"base_weights":[-1.5447067E2,-4.158908E3,8.560336E2,-4.6999344E1,-2.0159649E1,2.6831243E0,1.2036552E1],"categories":[],"categories_nodes":[],"categories_segments":[],"categories_sizes":[],"default_left":[0,0,0,0,0,0,0],"id":19,"left_children":[1,3,5,-1,-1,-1,-1],"loss_changes":[6.226749E8,2.6466176E7,2.4806496E7,0E0,0E0,0E0,0E0],"parents":[2147483647,0,0,1,1,2,2],"right_children":[2,4,6,-1,-1,-1,-1],"split_conditions":[-4.9280983E-1,2.3470976E0,-6.728801E-1,-4.6999344E1,-2.0159649E1,2.6831243E0,1.2036552E1],"split_indices":[19,22,24,0,0,0,0],"split_type":[0,0,0,0,0,0,0],"sum_hessian":[1.52E2,3E1,1.22E2,2.3E1,7E0,4.6E1,7.6E1],"tree_param":{"num_deleted":"0","num_feature":"25","num_nodes":"7","size_leaf_vector":"1"}},{"base_weights":[-1.0747876E2,-4.2718174E3,9.258902E2,-4.4365208E1,2.522876E0,4.9234256E-1,1.1422872E1],"categories":[],"categories_nodes":[],"categories_segments":[],"categories_sizes":[],"default_left":[0,0,0,0,0,0,0],"id":20,"left_children":[1,3,5,-1,-1,-1,-1],"loss_changes":[6.4945E8,2.3473344E7,2.2898152E7,0E0,0E0,0E0,0E0],"parents":[2147483647,0,0,1,1,2,2],"right_children":[2,4,6,-1,-1,-1,-1],"split_conditions":[-4.9280983E-1,4.4262746E-1,-6.7922324E-1,-4.4365208E1,2.522876E0,4.9234256E-1,1.1422872E1],"split_indices":[19,1,4,0,0,0,0],"split_type":[0,0,0,0,0,0,0],"sum_hessian":[1.49E2,2.9E1,1.2E2,2.8E1,1E0,2.4E1,9.6E1],"tree_param":{"num_deleted":"0","num_feature":"25","num_nodes":"7","size_leaf_vector":"1"}},{"base_weights":[-1.4042026E1,-4.1730117E3,9.996064E2,-4.7861088E1,-1.965367E1,7.9248767E0,1.9284225E1],"categories":[],"categories_nodes":[],"categories_segments":[],"categories_sizes":[],"default_left":[0,0,0,0,0,0,0],"id":21,"left_children":[1,3,5,-1,-1,-1,-1],"loss_changes":[6.238841E8,2.9845056E7,2.1364392E7,0E0,0E0,0E0,0E0],"parents":[2147483647,0,0,1,1,2,2],"right_children":[2,4,6,-1,-1,-1,-1],"split_conditions":[-4.9280983E-1,2.3470976E0,8.247073E-1,-4.7861088E1,-1.965367E1,7.9248767E0,1.9284225E1],"split_indices":[19,22,13,0,0,0,0],"split_type":[0,0,0,0,0,0,0],"sum_hessian":[1.46E2,2.8E1,1.18E2,2.1E1,7E0,9.8E1,2E1],"tree_param":{"num_deleted":"0","num_feature":"25","num_nodes":"7","size_leaf_vector":"1"}},{"base_weights":[-4.6099297E1,-3.9419038E3,9.28236E2,-4.389428E1,-1.4202359E1,1.9595787E1,6.6348896E0],"categories":[],"categories_nodes":[],"categories_segments":[],"categories_sizes":[],"default_left":[0,0,0,0,0,0,0],"id":22,"left_children":[1,3,5,-1,-1,-1,-1],"loss_changes":[5.6923616E8,2.7621248E7,3.1465232E7,0E0,0E0,0E0,0E0],"parents":[2147483647,0,0,1,1,2,2],"right_children":[2,4,6,-1,-1,-1,-1],"split_conditions":[-4.9280983E-1,1.5218925E-1,-6.239464E-1,-4.389428E1,-1.4202359E1,1.9595787E1,6.6348896E0],"split_indices":[19,15,23,0,0,0,0],"split_type":[0,0,0,0,0,0,0],"sum_hessian":[1.48E2,2.9E1,1.19E2,2.4E1,5E0,2.3E1,9.6E1],"tree_param":{"num_deleted":"0","num_feature":"25","num_nodes":"7","size_leaf_vector":"1"}},{"base_weights":[1.05439545E2,-3.7256484E3,9.078819E2,-3.985639E1,-4.0383854E0,4.9064093E0,1.2227444E1],"categories":[],"categories_nodes":[],"categories_segments":[],"categories_sizes":[],"default_left":[0,0,0,0,0,0,0],"id":23,"left_children":[1,3,5,-1,-1,-1,-1],"loss_changes":[4.6144234E8,2.0845088E7,1.5690392E7,0E0,0E0,0E0,0E0],"parents":[2147483647,0,0,1,1,2,2],"right_children":[2,4,6,-1,-1,-1,-1],"split_conditions":[-4.9280983E-1,3.4306335E-1,-4.41342E-1,-3.985639E1,-4.0383854E0,4.9064093E0,1.2227444E1],"split_indices":[19,1,15,0,0,0,0],"split_type":[0,0,0,0,0,0,0],"sum_hessian":[1.48E2,2.5E1,1.23E2,2.3E1,2E0,5.4E1,6.9E1],"tree_param":{"num_deleted":"0","num_feature":"25","num_nodes":"7","size_leaf_vector":"1"}},{"base_weights":[1.312866E1,-3.80669E3,9.438985E2,-1.0996693E1,-4.324833E1,3.6213186E0,1.3321051E1],"categories":[],"categories_nodes":[],"categories_segments":[],"categories_sizes":[],"default_left":[0,0,0,0,0,0,0],"id":24,"left_children":[1,3,5,-1,-1,-1,-1],"loss_changes":[5.2623277E8,3.5920224E7,2.6393232E7,0E0,0E0,0E0,0E0],"parents":[2147483647,0,0,1,1,2,2],"right_children":[2,4,6,-1,-1,-1,-1],"split_conditions":[-6.700865E-1,-1.8661156E-1,-5.503089E-1,-1.0996693E1,-4.324833E1,3.6213186E0,1.3321051E1],"split_indices":[19,16,24,0,0,0,0],"split_type":[0,0,0,0,0,0,0],"sum_hessian":[1.46E2,2.8E1,1.18E2,5E0,2.3E1,4.8E1,7E1],"tree_param":{"num_deleted":"0","num_feature":"25","num_nodes":"7","size_leaf_vector":"1"}},{"base_weights":[4.9747715E1,-3.9243884E3,9.4673206E2,-4.1820644E1,-3.8306477E0,5.655254E0,1.3995272E1],"categories":[],"categories_nodes":[],"categories_segments":[],"categories_sizes":[],"default_left":[0,0,0,0,0,0,0],"id":25,"left_children":[1,3,5,-1,-1,-1,-1],"loss_changes":[5.419908E8,2.3948416E7,2.0611992E7,0E0,0E0,0E0,0E0],"parents":[2147483647,0,0,1,1,2,2],"right_children":[2,4,6,-1,-1,-1,-1],"split_conditions":[-4.9280983E-1,4.4262746E-1,-8.030473E-2,-4.1820644E1,-3.8306477E0,5.655254E0,1.3995272E1],"split_indices":[19,1,4,0,0,0,0],"split_type":[0,0,0,0,0,0,0],"sum_hessian":[1.5E2,2.7E1,1.23E2,2.5E1,2E0,6.8E1,5.5E1],"tree_param":{"num_deleted":"0","num_feature":"25","num_nodes":"7","size_leaf_vector":"1"}},{"base_weights":[-1.1639413E2,-4.0095234E3,8.500331E2,-4.29671E1,-9.968364E0,1.3248937E1,4.820816E0],"categories":[],"categories_nodes":[],"categories_segments":[],"categories_sizes":[],"default_left":[0,0,0,0,0,0,0],"id":26,"left_children":[1,3,5,-1,-1,-1,-1],"loss_changes":[5.8658426E8,2.2538176E7,2.1202E7,0E0,0E0,0E0,0E0],"parents":[2147483647,0,0,1,1,2,2],"right_children":[2,4,6,-1,-1,-1,-1],"split_conditions":[-4.9280983E-1,1.9363819E0,1.4647421E-2,-4.29671E1,-9.968364E0,1.3248937E1,4.820816E0],"split_indices":[19,23,18,0,0,0,0],"split_type":[0,0,0,0,0,0,0],"sum_hessian":[1.54E2,3E1,1.24E2,2.7E1,3E0,5.3E1,7.1E1],"tree_param":{"num_deleted":"0","num_feature":"25","num_nodes":"7","size_leaf_vector":"1"}},{"base_weights":[2.4043364E2,-3.743066E3,9.874128E2,-1.979048E1,-4.8120747E1,8.777013E0,2.5860641E1],"categories":[],"categories_nodes":[],"categories_segments":[],"categories_sizes":[],"default_left":[0,0,0,0,0,0,0],"id":27,"left_children":[1,3,5,-1,-1,-1,-1],"loss_changes":[4.1432755E8,3.1963136E7,1.8250888E7,0E0,0E0,0E0,0E0],"parents":[2147483647,0,0,1,1,2,2],"right_children":[2,4,6,-1,-1,-1,-1],"split_conditions":[-6.700865E-1,1.0369595E-1,1.267262E0,-1.979048E1,-4.8120747E1,8.777013E0,2.5860641E1],"split_indices":[19,16,4,0,0,0,0],"split_type":[0,0,0,0,0,0,0],"sum_hessian":[1.37E2,2.1E1,1.16E2,9E0,1.2E1,1.1E2,6E0],"tree_param":{"num_deleted":"0","num_feature":"25","num_nodes":"7","size_leaf_vector":"1"}},{"base_weights":[-1.6652092E2,-3.8467493E3,8.679863E2,-1.8859118E1,-4.3203472E1,1.957764E1,6.9583983E0],"categories":[],"categories_nodes":[],"categories_segments":[],"categories_sizes":[],"default_left":[0,0,0,0,0,0,0],"id":28,"left_children":[1,3,5,-1,-1,-1,-1],"loss_changes":[5.5538624E8,2.156896E7,2.002428E7,0E0,0E0,0E0,0E0],"parents":[2147483647,0,0,1,1,2,2],"right_children":[2,4,6,-1,-1,-1,-1],"split_conditions":[-4.9280983E-1,-1.8661156E-1,-1.7095919E-1,-1.8859118E1,-4.3203472E1,1.957764E1,6.9583983E0],"split_indices":[19,16,21,0,0,0,0],"split_type":[0,0,0,0,0,0,0],"sum_hessian":[1.44E2,3.1E1,1.13E2,7E0,2.4E1,1.4E1,9.9E1],"tree_param":{"num_deleted":"0","num_feature":"25","num_nodes":"7","size_leaf_vector":"1"}},{"base_weights":[4.6355618E1,-3.9092373E3,7.876671E2,-4.5277203E1,-1.7603903E1,1.702372E1,5.710901E0],"categories":[],"categories_nodes":[],"categories_segments":[],"categories_sizes":[],"default_left":[0,0,0,0,0,0,0],"id":29,"left_children":[1,3,5,-1,-1,-1,-1],"loss_changes":[4.4586045E8,2.392608E7,2.4385112E7,0E0,0E0,0E0,0E0],"parents":[2147483647,0,0,1,1,2,2],"right_children":[2,4,6,-1,-1,-1,-1],"split_conditions":[-4.9280983E-1,2.2915323E0,-1.4570022E-1,-4.5277203E1,-1.7603903E1,1.702372E1,5.710901E0],"split_indices":[19,22,21,0,0,0,0],"split_type":[0,0,0,0,0,0,0],"sum_hessian":[1.5E2,2.3E1,1.27E2,1.7E1,6E0,2.3E1,1.04E2],"tree_param":{"num_deleted":"0","num_feature":"25","num_nodes":"7","size_leaf_vector":"1"}},{"base_weights":[1.514273E2,-3.7196553E3,8.9944794E2,-4.4381763E1,-1.7278412E1,2.4809605E1,7.8362274E0],"categories":[],"categories_nodes":[],"categories_segments":[],"categories_sizes":[],"default_left":[0,0,0,0,0,0,0],"id":30,"left_children":[1,3,5,-1,-1,-1,-1],"loss_changes":[4.2900614E8,2.667936E7,2.0770048E7,0E0,0E0,0E0,0E0],"parents":[2147483647,0,0,1,1,2,2],"right_children":[2,4,6,-1,-1,-1,-1],"split_conditions":[-6.700865E-1,2.2915323E0,-8.210505E-1,-4.4381763E1,-1.7278412E1,2.4809605E1,7.8362274E0],"split_indices":[19,22,3,0,0,0,0],"split_type":[0,0,0,0,0,0,0],"sum_hessian":[1.46E2,2.3E1,1.23E2,1.6E1,7E0,7E0,1.16E2],"tree_param":{"num_deleted":"0","num_feature":"25","num_nodes":"7","size_leaf_vector":"1"}},{"base_weights":[-3.8538254E1,-3.631101E3,9.3022687E2,-4.0943718E1,-1.4578331E1,5.4421287E0,1.6685051E1],"categories":[],"categories_nodes":[],"categories_segments":[],"categories_sizes":[],"default_left":[0,0,0,0,0,0,0],"id":31,"left_children":[1,3,5,-1,-1,-1,-1],"loss_changes":[5.080284E8,2.524224E7,3.1865344E7,0E0,0E0,0E0,0E0],"parents":[2147483647,0,0,1,1,2,2],"right_children":[2,4,6,-1,-1,-1,-1],"split_conditions":[-4.9280983E-1,2.3470976E0,5.861183E-1,-4.0943718E1,-1.4578331E1,5.4421287E0,1.6685051E1],"split_indices":[19,22,12,0,0,0,0],"split_type":[0,0,0,0,0,0,0],"sum_hessian":[1.44E2,3E1,1.14E2,2.4E1,6E0,7.6E1,3.8E1],"tree_param":{"num_deleted":"0","num_feature":"25","num_nodes":"7","size_leaf_vector":"1"}},{"base_weights":[5.831249E1,8.8421075E2,-3.7980393E3,-1.5324634E1,9.55613E0,3.9760058E0,-3.9747025E1],"categories":[],"categories_nodes":[],"categories_segments":[],"categories_sizes":[],"default_left":[0,0,0,0,0,0,0],"id":32,"left_children":[1,3,5,-1,-1,-1,-1],"loss_changes":[4.874713E8,2.3206512E7,2.159312E7,0E0,0E0,0E0,0E0],"parents":[2147483647,0,0,1,1,2,2],"right_children":[2,4,6,-1,-1,-1,-1],"split_conditions":[1.4586241E0,-1.0651182E0,-4.330198E-1,-1.5324634E1,9.55613E0,3.9760058E0,-3.9747025E1],"split_indices":[23,15,3,0,0,0,0],"split_type":[0,0,0,0,0,0,0],"sum_hessian":[1.51E2,1.25E2,2.6E1,3E0,1.22E2,1E0,2.5E1],"tree_param":{"num_deleted":"0","num_feature":"25","num_nodes":"7","size_leaf_vector":"1"}},{"base_weights":[4.5839684E1,-3.489687E3,8.704139E2,-3.7249336E1,-2.876533E0,3.188677E0,1.3322011E1],"categories":[],"categories_nodes":[],"categories_segments":[],"categories_sizes":[],"default_left":[0,0,0,0,0,0,0],"id":33,"left_children":[1,3,5,-1,-1,-1,-1],"loss_changes":[4.3158714E8,2.002E7,3.0138848E7,0E0,0E0,0E0,0E0],"parents":[2147483647,0,0,1,1,2,2],"right_children":[2,4,6,-1,-1,-1,-1],"split_conditions":[-4.9280983E-1,1.9363819E0,-2.5929633E-1,-3.7249336E1,-2.876533E0,3.188677E0,1.3322011E1],"split_indices":[19,23,17,0,0,0,0],"split_type":[0,0,0,0,0,0,0],"sum_hessian":[1.46E2,2.7E1,1.19E2,2.5E1,2E0,5.5E1,6.4E1],"tree_param":{"num_deleted":"0","num_feature":"25","num_nodes":"7","size_leaf_vector":"1"}},{"base_weights":[7.494425E1,-3.3308154E3,8.3723486E2,-3.6349792E1,-5.970859E0,-1.5233615E1,9.077688E0],"categories":[],"categories_nodes":[],"categories_segments":[],"categories_sizes":[],"default_left":[0,0,0,0,0,0,0],"id":34,"left_children":[1,3,5,-1,-1,-1,-1],"loss_changes":[3.9740778E8,2.1111712E7,2.2195656E7,0E0,0E0,0E0,0E0],"parents":[2147483647,0,0,1,1,2,2],"right_children":[2,4,6,-1,-1,-1,-1],"split_conditions":[-4.9280983E-1,1.9363819E0,-1.0651182E0,-3.6349792E1,-5.970859E0,-1.5233615E1,9.077688E0],"split_indices":[19,23,15,0,0,0,0],"split_type":[0,0,0,0,0,0,0],"sum_hessian":[1.51E2,2.7E1,1.24E2,2.4E1,3E0,3E0,1.21E2],"tree_param":{"num_deleted":"0","num_feature":"25","num_nodes":"7","size_leaf_vector":"1"}},{"base_weights":[-4.574198E1,-3.5831975E3,8.545383E2,-3.9610744E1,-9.77173E0,7.4167314E0,2.4738092E1],"categories":[],"categories_nodes":[],"categories_segments":[],"categories_sizes":[],"default_left":[0,0,0,0,0,0,0],"id":35,"left_children":[1,3,5,-1,-1,-1,-1],"loss_changes":[4.5528957E8,2.4687328E7,1.8999792E7,0E0,0E0,0E0,0E0],"parents":[2147483647,0,0,1,1,2,2],"right_children":[2,4,6,-1,-1,-1,-1],"split_conditions":[-4.9280983E-1,1.9363819E0,1.267262E0,-3.9610744E1,-9.77173E0,7.4167314E0,2.4738092E1],"split_indices":[19,23,4,0,0,0,0],"split_type":[0,0,0,0,0,0,0],"sum_hessian":[1.41E2,2.8E1,1.13E2,2.4E1,4E0,1.07E2,6E0],"tree_param":{"num_deleted":"0","num_feature":"25","num_nodes":"7","size_leaf_vector":"1"}},{"base_weights":[-3.6981125E1,7.3996063E2,-3.5174617E3,3.2509332E0,1.1849873E1,4.522173E0,-3.6875343E1],"categories":[],"categories_nodes":[],"categories_segments":[],"categories_sizes":[],"default_left":[0,0,0,0,0,0,0],"id":36,"left_children":[1,3,5,-1,-1,-1,-1],"loss_changes":[4.0010998E8,2.1954632E7,1.9896224E7,0E0,0E0,0E0,0E0],"parents":[2147483647,0,0,1,1,2,2],"right_children":[2,4,6,-1,-1,-1,-1],"split_conditions":[1.4586241E0,-8.030473E-2,-4.330198E-1,3.2509332E0,1.1849873E1,4.522173E0,-3.6875343E1],"split_indices":[23,4,3,0,0,0,0],"split_type":[0,0,0,0,0,0,0],"sum_hessian":[1.46E2,1.2E2,2.6E1,6.3E1,5.7E1,1E0,2.5E1],"tree_param":{"num_deleted":"0","num_feature":"25","num_nodes":"7","size_leaf_vector":"1"}},{"base_weights":[-1.6657732E1,-3.4922676E3,7.975992E2,-3.913622E1,-9.398558E0,5.220183E0,1.678459E1],"categories":[],"categories_nodes":[],"categories_segments":[],"categories_sizes":[],"default_left":[0,0,0,0,0,0,0],"id":37,"left_children":[1,3,5,-1,-1,-1,-1],"loss_changes":[3.876708E8,2.4283936E7,2.6068856E7,0E0,0E0,0E0,0E0],"parents":[2147483647,0,0,1,1,2,2],"right_children":[2,4,6,-1,-1,-1,-1],"split_conditions":[-4.9280983E-1,1.9363819E0,6.6380763E-1,-3.913622E1,-9.398558E0,5.220183E0,1.678459E1],"split_indices":[19,23,12,0,0,0,0],"split_type":[0,0,0,0,0,0,0],"sum_hessian":[1.35E2,2.5E1,1.1E2,2.1E1,4E0,8.5E1,2.5E1],"tree_param":{"num_deleted":"0","num_feature":"25","num_nodes":"7","size_leaf_vector":"1"}},{"base_weights":[5.6230167E1,-3.2650435E3,8.288005E2,-3.5050438E1,-1.766914E0,-1.52954645E1,8.83592E0],"categories":[],"categories_nodes":[],"categories_segments":[],"categories_sizes":[],"default_left":[0,0,0,0,0,0,0],"id":38,"left_children":[1,3,5,-1,-1,-1,-1],"loss_changes":[3.6706634E8,1.9393248E7,1.6340728E7,0E0,0E0,0E0,0E0],"parents":[2147483647,0,0,1,1,2,2],"right_children":[2,4,6,-1,-1,-1,-1],"split_conditions":[-4.9280983E-1,3.4306335E-1,-1.197561E0,-3.5050438E1,-1.766914E0,-1.52954645E1,8.83592E0],"split_indices":[19,1,15,0,0,0,0],"split_type":[0,0,0,0,0,0,0],"sum_hessian":[1.41E2,2.6E1,1.15E2,2.4E1,2E0,2E0,1.13E2],"tree_param":{"num_deleted":"0","num_feature":"25","num_nodes":"7","size_leaf_vector":"1"}},{"base_weights":[4.9135704E1,-3.4710173E3,8.1522437E2,-3.727637E1,-1.7551367E0,2.0022099E1,6.0792565E0],"categories":[],"categories_nodes":[],"categories_segments":[],"categories_sizes":[],"default_left":[0,0,0,0,0,0,0],"id":39,"left_children":[1,3,5,-1,-1,-1,-1],"loss_changes":[4.0734205E8,2.2179424E7,2.9294328E7,0E0,0E0,0E0,0E0],"parents":[2147483647,0,0,1,1,2,2],"right_children":[2,4,6,-1,-1,-1,-1],"split_conditions":[-4.9280983E-1,4.4262746E-1,-1.4570022E-1,-3.727637E1,-1.7551367E0,2.0022099E1,6.0792565E0],"split_indices":[19,1,21,0,0,0,0],"split_type":[0,0,0,0,0,0,0],"sum_hessian":[1.49E2,2.6E1,1.23E2,2.4E1,2E0,1.7E1,1.06E2],"tree_param":{"num_deleted":"0","num_feature":"25","num_nodes":"7","size_leaf_vector":"1"}},{"base_weights":[5.6201035E1,-3.3164702E3,8.445177E2,-1.0812663E1,-3.737085E1,4.539727E0,1.2811037E1],"categories":[],"categories_nodes":[],"categories_segments":[],"categories_sizes":[],"default_left":[0,0,0,0,0,0,0],"id":40,"left_children":[1,3,5,-1,-1,-1,-1],"loss_changes":[4.069282E8,2.3223872E7,2.0561216E7,0E0,0E0,0E0,0E0],"parents":[2147483647,0,0,1,1,2,2],"right_children":[2,4,6,-1,-1,-1,-1],"split_conditions":[-6.700865E-1,-1.8661156E-1,1.66037E-2,-1.0812663E1,-3.737085E1,4.539727E0,1.2811037E1],"split_indices":[19,16,16,0,0,0,0],"split_type":[0,0,0,0,0,0,0],"sum_hessian":[1.51E2,2.8E1,1.23E2,5E0,2.3E1,6.6E1,5.7E1],"tree_param":{"num_deleted":"0","num_feature":"25","num_nodes":"7","size_leaf_vector":"1"}},{"base_weights":[-8.470467E1,-3.1435784E3,7.264901E2,-3.5367046E1,-9.161014E0,1.1940744E0,1.1181294E1],"categories":[],"categories_nodes":[],"categories_segments":[],"categories_sizes":[],"default_left":[0,0,0,0,0,0,0],"id":41,"left_children":[1,3,5,-1,-1,-1,-1],"loss_changes":[3.6704115E8,2.390608E7,2.7684116E7,0E0,0E0,0E0,0E0],"parents":[2147483647,0,0,1,1,2,2],"right_children":[2,4,6,-1,-1,-1,-1],"split_conditions":[-4.9280983E-1,1.4436032E-1,-6.728801E-1,-3.5367046E1,-9.161014E0,1.1940744E0,1.1181294E1],"split_indices":[19,15,24,0,0,0,0],"split_type":[0,0,0,0,0,0,0],"sum_hessian":[1.46E2,3E1,1.16E2,2.5E1,5E0,4.6E1,7E1],"tree_param":{"num_deleted":"0","num_feature":"25","num_nodes":"7","size_leaf_vector":"1"}},{"base_weights":[-8.232493E1,-3.3343638E3,6.2077405E2,-3.811542E1,-1.4264903E1,2.1565936E0,1.1494311E1],"categories":[],"categories_nodes":[],"categories_segments":[],"categories_sizes":[],"default_left":[0,0,0,0,0,0,0],"id":42,"left_children":[1,3,5,-1,-1,-1,-1],"loss_changes":[3.4733213E8,1.9143616E7,2.6522968E7,0E0,0E0,0E0,0E0],"parents":[2147483647,0,0,1,1,2,2],"right_children":[2,4,6,-1,-1,-1,-1],"split_conditions":[-4.9280983E-1,2.3470976E0,-8.030473E-2,-3.811542E1,-1.4264903E1,2.1565936E0,1.1494311E1],"split_indices":[19,22,4,0,0,0,0],"split_type":[0,0,0,0,0,0,0],"sum_hessian":[1.5E2,2.6E1,1.24E2,2E1,6E0,7.1E1,5.3E1],"tree_param":{"num_deleted":"0","num_feature":"25","num_nodes":"7","size_leaf_vector":"1"}},{"base_weights":[-8.474389E1,-3.4863706E3,7.0774457E2,-4.0363598E1,-1.3383492E1,1.5607426E0,1.0948637E1],"categories":[],"categories_nodes":[],"categories_segments":[],"categories_sizes":[],"default_left":[0,0,0,0,0,0,0],"id":43,"left_children":[1,3,5,-1,-1,-1,-1],"loss_changes":[3.8526394E8,2.6495456E7,2.4602332E7,0E0,0E0,0E0,0E0],"parents":[2147483647,0,0,1,1,2,2],"right_children":[2,4,6,-1,-1,-1,-1],"split_conditions":[-4.9280983E-1,2.3470976E0,-4.4724244E-1,-4.0363598E1,-1.3383492E1,1.5607426E0,1.0948637E1],"split_indices":[19,22,15,0,0,0,0],"split_type":[0,0,0,0,0,0,0],"sum_hessian":[1.41E2,2.6E1,1.15E2,2E1,6E0,4.8E1,6.7E1],"tree_param":{"num_deleted":"0","num_feature":"25","num_nodes":"7","size_leaf_vector":"1"}},{"base_weights":[1.3288597E1,-3.3141782E3,7.645449E2,-3.885049E1,-1.40137005E1,1.7272348E1,5.399722E0],"categories":[],"categories_nodes":[],"categories_segments":[],"categories_sizes":[],"default_left":[0,0,0,0,0,0,0],"id":44,"left_children":[1,3,5,-1,-1,-1,-1],"loss_changes":[3.8000074E8,2.5130656E7,2.5875376E7,0E0,0E0,0E0,0E0],"parents":[2147483647,0,0,1,1,2,2],"right_children":[2,4,6,-1,-1,-1,-1],"split_conditions":[-4.9280983E-1,2.3470976E0,-1.4570022E-1,-3.885049E1,-1.40137005E1,1.7272348E1,5.399722E0],"split_indices":[19,22,21,0,0,0,0],"split_type":[0,0,0,0,0,0,0],"sum_hessian":[1.5E2,2.7E1,1.23E2,2E1,7E0,2.2E1,1.01E2],"tree_param":{"num_deleted":"0","num_feature":"25","num_nodes":"7","size_leaf_vector":"1"}},{"base_weights":[-2.6519468E1,-3.178606E3,7.2915845E2,-3.486831E1,-3.8049133E0,2.8287218E0,1.0289522E1],"categories":[],"categories_nodes":[],"categories_segments":[],"categories_sizes":[],"default_left":[0,0,0,0,0,0,0],"id":45,"left_children":[1,3,5,-1,-1,-1,-1],"loss_changes":[3.5723008E8,2.368432E7,1.5897992E7,0E0,0E0,0E0,0E0],"parents":[2147483647,0,0,1,1,2,2],"right_children":[2,4,6,-1,-1,-1,-1],"split_conditions":[-6.700865E-1,-5.5193156E-2,-4.41342E-1,-3.486831E1,-3.8049133E0,2.8287218E0,1.0289522E1],"split_indices":[19,1,15,0,0,0,0],"split_type":[0,0,0,0,0,0,0],"sum_hessian":[1.48E2,2.8E1,1.2E2,2.5E1,3E0,4.9E1,7.1E1],"tree_param":{"num_deleted":"0","num_feature":"25","num_nodes":"7","size_leaf_vector":"1"}},{"base_weights":[2.5686575E1,-3.3363857E3,7.99293E2,-3.5727875E1,-9.66416E-1,1.7753344E1,6.3077893E0],"categories":[],"categories_nodes":[],"categories_segments":[],"categories_sizes":[],"default_left":[0,0,0,0,0,0,0],"id":46,"left_children":[1,3,5,-1,-1,-1,-1],"loss_changes":[4.0320858E8,2.186528E7,1.9604224E7,0E0,0E0,0E0,0E0],"parents":[2147483647,0,0,1,1,2,2],"right_children":[2,4,6,-1,-1,-1,-1],"split_conditions":[-4.9280983E-1,4.4262746E-1,-1.1756351E0,-3.5727875E1,-9.66416E-1,1.7753344E1,6.3077893E0],"split_indices":[19,1,0,0,0,0,0],"split_type":[0,0,0,0,0,0,0],"sum_hessian":[1.53E2,2.8E1,1.25E2,2.6E1,2E0,1.7E1,1.08E2],"tree_param":{"num_deleted":"0","num_feature":"25","num_nodes":"7","size_leaf_vector":"1"}},{"base_weights":[-6.866429E1,-3.201841E3,7.2178925E2,-3.7117702E1,-1.3355647E1,3.4584746E0,1.2162635E1],"categories":[],"categories_nodes":[],"categories_segments":[],"categories_sizes":[],"default_left":[0,0,0,0,0,0,0],"id":47,"left_children":[1,3,5,-1,-1,-1,-1],"loss_changes":[3.688524E8,2.3592704E7,2.1700684E7,0E0,0E0,0E0,0E0],"parents":[2147483647,0,0,1,1,2,2],"right_children":[2,4,6,-1,-1,-1,-1],"split_conditions":[-6.700865E-1,2.3470976E0,-8.030473E-2,-3.7117702E1,-1.3355647E1,3.4584746E0,1.2162635E1],"split_indices":[19,22,4,0,0,0,0],"split_type":[0,0,0,0,0,0,0],"sum_hessian":[1.47E2,2.9E1,1.18E2,2.2E1,7E0,6.8E1,5E1],"tree_param":{"num_deleted":"0","num_feature":"25","num_nodes":"7","size_leaf_vector":"1"}},{"base_weights":[1.0030318E2,7.86478E2,-3.2024722E3,1.7519388E1,6.0769076E0,-3.617579E1,-7.3550797E0],"categories":[],"categories_nodes":[],"categories_segments":[],"categories_sizes":[],"default_left":[0,0,0,0,0,0,0],"id":48,"left_children":[1,3,5,-1,-1,-1,-1],"loss_changes":[3.4246083E8,2.051188E7,2.3964656E7,0E0,0E0,0E0,0E0],"parents":[2147483647,0,0,1,1,2,2],"right_children":[2,4,6,-1,-1,-1,-1],"split_conditions":[1.5268507E0,-1.4570022E-1,1.9363819E0,1.7519388E1,6.0769076E0,-3.617579E1,-7.3550797E0],"split_indices":[23,21,23,0,0,0,0],"split_type":[0,0,0,0,0,0,0],"sum_hessian":[1.49E2,1.24E2,2.5E1,1.8E1,1.06E2,2.1E1,4E0],"tree_param":{"num_deleted":"0","num_feature":"25","num_nodes":"7","size_leaf_vector":"1"}},{"base_weights":[1.3661552E2,-2.9228896E3,7.782207E2,-5.9540133E0,-3.337868E1,3.7059689E0,1.2788352E1],"categories":[],"categories_nodes":[],"categories_segments":[],"categories_sizes":[],"default_left":[0,0,0,0,0,0,0],"id":49,"left_children":[1,3,5,-1,-1,-1,-1],"loss_changes":[2.8298285E8,2.2159056E7,2.3809496E7,0E0,0E0,0E0,0E0],"parents":[2147483647,0,0,1,1,2,2],"right_children":[2,4,6,-1,-1,-1,-1],"split_conditions":[-4.9280983E-1,-5.2949363E-1,-8.030473E-2,-5.9540133E0,-3.337868E1,3.7059689E0,1.2788352E1],"split_indices":[19,4,4,0,0,0,0],"split_type":[0,0,0,0,0,0,0],"sum_hessian":[1.42E2,2.4E1,1.18E2,4E0,2E1,6.6E1,5.2E1],"tree_param":{"num_deleted":"0","num_feature":"25","num_nodes":"7","size_leaf_vector":"1"}},{"base_weights":[-1.0143139E2,-3.002497E3,6.8147705E2,-3.316125E1,-7.0840554E0,1.3670208E0,1.1134586E1],"categories":[],"categories_nodes":[],"categories_segments":[],"categories_sizes":[],"default_left":[0,0,0,0,0,0,0],"id":50,"left_children":[1,3,5,-1,-1,-1,-1],"loss_changes":[3.3138013E8,1.9955072E7,2.6911044E7,0E0,0E0,0E0,0E0],"parents":[2147483647,0,0,1,1,2,2],"right_children":[2,4,6,-1,-1,-1,-1],"split_conditions":[-4.9280983E-1,1.9363819E0,-5.503089E-1,-3.316125E1,-7.0840554E0,1.3670208E0,1.1134586E1],"split_indices":[19,23,24,0,0,0,0],"split_type":[0,0,0,0,0,0,0],"sum_hessian":[1.44E2,3E1,1.14E2,2.6E1,4E0,5.1E1,6.3E1],"tree_param":{"num_deleted":"0","num_feature":"25","num_nodes":"7","size_leaf_vector":"1"}},{"base_weights":[-9.894269E1,-3.1215554E3,7.215874E2,-3.5896935E1,-1.2684299E1,3.1466894E0,1.2147012E1],"categories":[],"categories_nodes":[],"categories_segments":[],"categories_sizes":[],"default_left":[0,0,0,0,0,0,0],"id":51,"left_children":[1,3,5,-1,-1,-1,-1],"loss_changes":[3.7179402E8,2.3207328E7,2.3295312E7,0E0,0E0,0E0,0E0],"parents":[2147483647,0,0,1,1,2,2],"right_children":[2,4,6,-1,-1,-1,-1],"split_conditions":[-4.9280983E-1,2.3470976E0,-8.030473E-2,-3.5896935E1,-1.2684299E1,3.1466894E0,1.2147012E1],"split_indices":[19,22,4,0,0,0,0],"split_type":[0,0,0,0,0,0,0],"sum_hessian":[1.48E2,3.1E1,1.17E2,2.4E1,7E0,6.5E1,5.2E1],"tree_param":{"num_deleted":"0","num_feature":"25","num_nodes":"7","size_leaf_vector":"1"}},{"base_weights":[4.930368E1,-3.2538071E3,8.746563E2,-3.4140484E1,6.164746E0,1.7365541E1,6.4282618E0],"categories":[],"categories_nodes":[],"categories_segments":[],"categories_sizes":[],"default_left":[0,0,0,0,0,0,0],"id":52,"left_children":[1,3,5,-1,-1,-1,-1],"loss_changes":[3.9542326E8,2.0089856E7,2.2062112E7,0E0,0E0,0E0,0E0],"parents":[2147483647,0,0,1,1,2,2],"right_children":[2,4,6,-1,-1,-1,-1],"split_conditions":[-4.9280983E-1,4.4262746E-1,-6.239464E-1,-3.4140484E1,6.164746E0,1.7365541E1,6.4282618E0],"split_indices":[19,1,23,0,0,0,0],"split_type":[0,0,0,0,0,0,0],"sum_hessian":[1.43E2,2.8E1,1.15E2,2.7E1,1E0,2.3E1,9.2E1],"tree_param":{"num_deleted":"0","num_feature":"25","num_nodes":"7","size_leaf_vector":"1"}},{"base_weights":[2.047195E1,-2.637321E3,5.882015E2,-1.4329286E1,-3.481277E1,4.1528006E0,1.939628E1],"categories":[],"categories_nodes":[],"categories_segments":[],"categories_sizes":[],"default_left":[0,0,0,0,0,0,0],"id":53,"left_children":[1,3,5,-1,-1,-1,-1],"loss_changes":[2.1430725E8,2.0422944E7,2.6536304E7,0E0,0E0,0E0,0E0],"parents":[2147483647,0,0,1,1,2,2],"right_children":[2,4,6,-1,-1,-1,-1],"split_conditions":[-6.700865E-1,1.0369595E-1,1.1175324E0,-1.4329286E1,-3.481277E1,4.1528006E0,1.939628E1],"split_indices":[19,16,4,0,0,0,0],"split_type":[0,0,0,0,0,0,0],"sum_hessian":[1.4E2,2.4E1,1.16E2,1.1E1,1.3E1,1.04E2,1.2E1],"tree_param":{"num_deleted":"0","num_feature":"25","num_nodes":"7","size_leaf_vector":"1"}},{"base_weights":[-9.525813E1,-3.2159646E3,6.4129266E2,-3.375146E1,6.2055664E0,1.4687425E0,1.0947897E1],"categories":[],"categories_nodes":[],"categories_segments":[],"categories_sizes":[],"default_left":[0,0,0,0,0,0,0],"id":54,"left_children":[1,3,5,-1,-1,-1,-1],"loss_changes":[3.4914477E8,1.9804832E7,2.7417928E7,0E0,0E0,0E0,0E0],"parents":[2147483647,0,0,1,1,2,2],"right_children":[2,4,6,-1,-1,-1,-1],"split_conditions":[-4.9280983E-1,3.1335251E0,-2.041504E-1,-3.375146E1,6.2055664E0,1.4687425E0,1.0947897E1],"split_indices":[19,20,17,0,0,0,0],"split_type":[0,0,0,0,0,0,0],"sum_hessian":[1.5E2,2.8E1,1.22E2,2.7E1,1E0,5.9E1,6.3E1],"tree_param":{"num_deleted":"0","num_feature":"25","num_nodes":"7","size_leaf_vector":"1"}},{"base_weights":[4.4745533E1,-2.9457937E3,7.919946E2,-3.213728E1,-4.6777244E0,5.721187E-1,1.2082603E1],"categories":[],"categories_nodes":[],"categories_segments":[],"categories_sizes":[],"default_left":[0,0,0,0,0,0,0],"id":55,"left_children":[1,3,5,-1,-1,-1,-1],"loss_changes":[3.2412662E8,1.7751136E7,3.541119E7,0E0,0E0,0E0,0E0],"parents":[2147483647,0,0,1,1,2,2],"right_children":[2,4,6,-1,-1,-1,-1],"split_conditions":[-4.9280983E-1,1.9363819E0,-6.728801E-1,-3.213728E1,-4.6777244E0,5.721187E-1,1.2082603E1],"split_indices":[19,23,24,0,0,0,0],"split_type":[0,0,0,0,0,0,0],"sum_hessian":[1.43E2,2.8E1,1.15E2,2.5E1,3E0,4.2E1,7.3E1],"tree_param":{"num_deleted":"0","num_feature":"25","num_nodes":"7","size_leaf_vector":"1"}},{"base_weights":[-1.23519356E2,-3.14705E3,5.858078E2,-3.4129776E1,2.9389486E-1,-4.3439242E-1,8.884255E0],"categories":[],"categories_nodes":[],"categories_segments":[],"categories_sizes":[],"default_left":[0,0,0,0,0,0,0],"id":56,"left_children":[1,3,5,-1,-1,-1,-1],"loss_changes":[2.9351904E8,2.2062576E7,2.1175356E7,0E0,0E0,0E0,0E0],"parents":[2147483647,0,0,1,1,2,2],"right_children":[2,4,6,-1,-1,-1,-1],"split_conditions":[-4.9280983E-1,1.9363819E0,-4.9126533E-1,-3.4129776E1,2.9389486E-1,-4.3439242E-1,8.884255E0],"split_indices":[19,23,16,0,0,0,0],"split_type":[0,0,0,0,0,0,0],"sum_hessian":[1.35E2,2.5E1,1.1E2,2.3E1,2E0,3.6E1,7.4E1],"tree_param":{"num_deleted":"0","num_feature":"25","num_nodes":"7","size_leaf_vector":"1"}},{"base_weights":[-7.6131744E1,-2.755897E3,4.7421436E2,-3.3516884E1,-1.1453527E1,1.4214948E0,8.865618E0],"categories":[],"categories_nodes":[],"categories_segments":[],"categories_sizes":[],"default_left":[0,0,0,0,0,0,0],"id":57,"left_children":[1,3,5,-1,-1,-1,-1],"loss_changes":[2.0777867E8,1.9190272E7,1.589433E7,0E0,0E0,0E0,0E0],"parents":[2147483647,0,0,1,1,2,2],"right_children":[2,4,6,-1,-1,-1,-1],"split_conditions":[-4.9280983E-1,2.3470976E0,-8.030473E-2,-3.3516884E1,-1.1453527E1,1.4214948E0,8.865618E0],"split_indices":[19,22,4,0,0,0,0],"split_type":[0,0,0,0,0,0,0],"sum_hessian":[1.39E2,2.3E1,1.16E2,1.6E1,7E0,6.5E1,5.1E1],"tree_param":{"num_deleted":"0","num_feature":"25","num_nodes":"7","size_leaf_vector":"1"}},{"base_weights":[1.0737855E2,-3.0561704E3,7.882522E2,4.1262937E0,-3.2178967E1,1.9770913E0,1.1597554E1],"categories":[],"categories_nodes":[],"categories_segments":[],"categories_sizes":[],"default_left":[0,0,0,0,0,0,0],"id":58,"left_children":[1,3,5,-1,-1,-1,-1],"loss_changes":[3.0396586E8,1.5352688E7,2.5219792E7,0E0,0E0,0E0,0E0],"parents":[2147483647,0,0,1,1,2,2],"right_children":[2,4,6,-1,-1,-1,-1],"split_conditions":[-4.9280983E-1,-2.6201298E0,1.8478266E-3,4.1262937E0,-3.2178967E1,1.9770913E0,1.1597554E1],"split_indices":[19,19,2,0,0,0,0],"split_type":[0,0,0,0,0,0,0],"sum_hessian":[1.39E2,2.4E1,1.15E2,1E0,2.3E1,4.5E1,7E1],"tree_param":{"num_deleted":"0","num_feature":"25","num_nodes":"7","size_leaf_vector":"1"}},{"base_weights":[-1.6505048E2,-2.8890073E3,5.284554E2,-3.0944048E1,5.950325E-1,1.3851292E0,9.706965E0],"categories":[],"categories_nodes":[],"categories_segments":[],"categories_sizes":[],"default_left":[0,0,0,0,0,0,0],"id":59,"left_children":[1,3,5,-1,-1,-1,-1],"loss_changes":[2.8866688E8,1.8958224E7,2.090428E7,0E0,0E0,0E0,0E0],"parents":[2147483647,0,0,1,1,2,2],"right_children":[2,4,6,-1,-1,-1,-1],"split_conditions":[-6.700865E-1,4.4262746E-1,-8.030473E-2,-3.0944048E1,5.950325E-1,1.3851292E0,9.706965E0],"split_indices":[19,1,4,0,0,0,0],"split_type":[0,0,0,0,0,0,0],"sum_hessian":[1.51E2,3E1,1.21E2,2.8E1,2E0,6.5E1,5.6E1],"tree_param":{"num_deleted":"0","num_feature":"25","num_nodes":"7","size_leaf_vector":"1"}},{"base_weights":[3.5014915E1,-2.709521E3,7.0961383E2,-2.909391E1,5.9106606E-1,3.619403E0,1.2964787E1],"categories":[],"categories_nodes":[],"categories_segments":[],"categories_sizes":[],"default_left":[0,0,0,0,0,0,0],"id":60,"left_children":[1,3,5,-1,-1,-1,-1],"loss_changes":[2.8149334E8,1.6772928E7,2.4423308E7,0E0,0E0,0E0,0E0],"parents":[2147483647,0,0,1,1,2,2],"right_children":[2,4,6,-1,-1,-1,-1],"split_conditions":[-4.9280983E-1,4.4262746E-1,4.6831822E-1,-2.909391E1,5.9106606E-1,3.619403E0,1.2964787E1],"split_indices":[19,1,13,0,0,0,0],"split_type":[0,0,0,0,0,0,0],"sum_hessian":[1.5E2,2.9E1,1.21E2,2.7E1,2E0,7.7E1,4.4E1],"tree_param":{"num_deleted":"0","num_feature":"25","num_nodes":"7","size_leaf_vector":"1"}},{"base_weights":[1.9041183E2,-2.9051677E3,6.9722034E2,-3.4195263E1,2.643269E0,1.9982067E0,1.1101184E1],"categories":[],"categories_nodes":[],"categories_segments":[],"categories_sizes":[],"default_left":[0,0,0,0,0,0,0],"id":61,"left_children":[1,3,5,-1,-1,-1,-1],"loss_changes":[2.451998E8,3.676952E7,2.7298464E7,0E0,0E0,0E0,0E0],"parents":[2147483647,0,0,1,1,2,2],"right_children":[2,4,6,-1,-1,-1,-1],"split_conditions":[-1.3791932E0,-5.5193156E-2,-2.156423E-1,-3.4195263E1,2.643269E0,1.9982067E0,1.1101184E1],"split_indices":[19,1,16,0,0,0,0],"split_type":[0,0,0,0,0,0,0],"sum_hessian":[1.54E2,2.1E1,1.33E2,1.8E1,3E0,6.1E1,7.2E1],"tree_param":{"num_deleted":"0","num_feature":"25","num_nodes":"7","size_leaf_vector":"1"}},{"base_weights":[-9.56537E1,5.557147E2,-2.6980417E3,1.033951E1,1.9596136E0,-2.9990274E1,-5.3311005E0],"categories":[],"categories_nodes":[],"categories_segments":[],"categories_sizes":[],"default_left":[0,0,0,0,0,0,0],"id":62,"left_children":[1,3,5,-1,-1,-1,-1],"loss_changes":[2.625468E8,2.1131228E7,1.86012E7,0E0,0E0,0E0,0E0],"parents":[2147483647,0,0,1,1,2,2],"right_children":[2,4,6,-1,-1,-1,-1],"split_conditions":[1.4586241E0,1.4647421E-2,1.9363819E0,1.033951E1,1.9596136E0,-2.9990274E1,-5.3311005E0],"split_indices":[23,18,23,0,0,0,0],"split_type":[0,0,0,0,0,0,0],"sum_hessian":[1.53E2,1.23E2,3E1,5.2E1,7.1E1,2.6E1,4E0],"tree_param":{"num_deleted":"0","num_feature":"25","num_nodes":"7","size_leaf_vector":"1"}},{"base_weights":[-1.3620471E2,-2.6531584E3,5.6064594E2,-3.0350143E1,-1.03274975E1,1.6093138E1,3.772812E0],"categories":[],"categories_nodes":[],"categories_segments":[],"categories_sizes":[],"default_left":[0,0,0,0,0,0,0],"id":63,"left_children":[1,3,5,-1,-1,-1,-1],"loss_changes":[2.7510224E8,1.790352E7,2.3044352E7,0E0,0E0,0E0,0E0],"parents":[2147483647,0,0,1,1,2,2],"right_children":[2,4,6,-1,-1,-1,-1],"split_conditions":[-4.9280983E-1,2.3470976E0,-1.1756351E0,-3.0350143E1,-1.03274975E1,1.6093138E1,3.772812E0],"split_indices":[19,22,0,0,0,0,0],"split_type":[0,0,0,0,0,0,0],"sum_hessian":[1.55E2,3.3E1,1.22E2,2.6E1,7E0,1.7E1,1.05E2],"tree_param":{"num_deleted":"0","num_feature":"25","num_nodes":"7","size_leaf_vector":"1"}},{"base_weights":[-1.3849747E2,-2.9415386E3,5.753138E2,-3.393301E1,-9.724178E0,1.2030313E0,1.0131524E1],"categories":[],"categories_nodes":[],"categories_segments":[],"categories_sizes":[],"default_left":[0,0,0,0,0,0,0],"id":64,"left_children":[1,3,5,-1,-1,-1,-1],"loss_changes":[2.9581613E8,2.3387568E7,2.338622E7,0E0,0E0,0E0,0E0],"parents":[2147483647,0,0,1,1,2,2],"right_children":[2,4,6,-1,-1,-1,-1],"split_conditions":[-4.9280983E-1,2.3470976E0,-8.030473E-2,-3.393301E1,-9.724178E0,1.2030313E0,1.0131524E1],"split_indices":[19,22,4,0,0,0,0],"split_type":[0,0,0,0,0,0,0],"sum_hessian":[1.46E2,2.9E1,1.17E2,2.3E1,6E0,5.8E1,5.9E1],"tree_param":{"num_deleted":"0","num_feature":"25","num_nodes":"7","size_leaf_vector":"1"}},{"base_weights":[-5.182693E1,5.534709E2,-2.8970488E3,1.38406105E1,3.9453313E0,-3.0645243E1,7.2865796E0],"categories":[],"categories_nodes":[],"categories_segments":[],"categories_sizes":[],"default_left":[0,0,0,0,0,0,0],"id":65,"left_children":[1,3,5,-1,-1,-1,-1],"loss_changes":[2.6510104E8,1.6219476E7,1.8627856E7,0E0,0E0,0E0,0E0],"parents":[2147483647,0,0,1,1,2,2],"right_children":[2,4,6,-1,-1,-1,-1],"split_conditions":[1.4586241E0,-1.1756351E0,-3.164005E-1,1.38406105E1,3.9453313E0,-3.0645243E1,7.2865796E0],"split_indices":[23,0,6,0,0,0,0],"split_type":[0,0,0,0,0,0,0],"sum_hessian":[1.52E2,1.26E2,2.6E1,1.9E1,1.07E2,2.5E1,1E0],"tree_param":{"num_deleted":"0","num_feature":"25","num_nodes":"7","size_leaf_vector":"1"}},{"base_weights":[-8.307384E1,-2.7692532E3,5.538552E2,-3.148559E1,-4.705952E0,-1.4575531E1,6.990647E0],"categories":[],"categories_nodes":[],"categories_segments":[],"categories_sizes":[],"default_left":[0,0,0,0,0,0,0],"id":66,"left_children":[1,3,5,-1,-1,-1,-1],"loss_changes":[2.4106056E8,2.205944E7,3.4315524E7,0E0,0E0,0E0,0E0],"parents":[2147483647,0,0,1,1,2,2],"right_children":[2,4,6,-1,-1,-1,-1],"split_conditions":[-1.2905548E0,1.9363819E0,-8.936157E-1,-3.148559E1,-4.705952E0,-1.4575531E1,6.990647E0],"split_indices":[19,23,15,0,0,0,0],"split_type":[0,0,0,0,0,0,0],"sum_hessian":[1.39E2,2.6E1,1.13E2,2.2E1,4E0,7E0,1.06E2],"tree_param":{"num_deleted":"0","num_feature":"25","num_nodes":"7","size_leaf_vector":"1"}},{"base_weights":[2.2981363E1,5.9207E2,-2.5914622E3,1.6821814E1,3.7879097E0,-2.8881645E1,-1.6338183E0],"categories":[],"categories_nodes":[],"categories_segments":[],"categories_sizes":[],"default_left":[0,0,0,0,0,0,0],"id":67,"left_children":[1,3,5,-1,-1,-1,-1],"loss_changes":[2.2471184E8,2.8192548E7,1.8979376E7,0E0,0E0,0E0,0E0],"parents":[2147483647,0,0,1,1,2,2],"right_children":[2,4,6,-1,-1,-1,-1],"split_conditions":[1.466834E0,-1.4570022E-1,1.9363819E0,1.6821814E1,3.7879097E0,-2.8881645E1,-1.6338183E0],"split_indices":[23,21,23,0,0,0,0],"split_type":[0,0,0,0,0,0,0],"sum_hessian":[1.49E2,1.23E2,2.6E1,1.9E1,1.04E2,2.3E1,3E0],"tree_param":{"num_deleted":"0","num_feature":"25","num_nodes":"7","size_leaf_vector":"1"}},{"base_weights":[-7.787381E0,-2.6713467E3,6.035851E2,-3.7952774E0,-3.0375027E1,1.0219552E1,2.2098434E0],"categories":[],"categories_nodes":[],"categories_segments":[],"categories_sizes":[],"default_left":[0,0,0,0,0,0,0],"id":68,"left_children":[1,3,5,-1,-1,-1,-1],"loss_changes":[2.4424798E8,2.2343776E7,1.9302544E7,0E0,0E0,0E0,0E0],"parents":[2147483647,0,0,1,1,2,2],"right_children":[2,4,6,-1,-1,-1,-1],"split_conditions":[-4.9280983E-1,-5.2949363E-1,1.4647421E-2,-3.7952774E0,-3.0375027E1,1.0219552E1,2.2098434E0],"split_indices":[19,4,18,0,0,0,0],"split_type":[0,0,0,0,0,0,0],"sum_hessian":[1.48E2,2.7E1,1.21E2,4E0,2.3E1,5.7E1,6.4E1],"tree_param":{"num_deleted":"0","num_feature":"25","num_nodes":"7","size_leaf_vector":"1"}},{"base_weights":[3.8642498E1,5.5714435E2,-2.6202896E3,-1.4389182E1,6.363306E0,-5.228809E0,-3.1447191E1],"categories":[],"categories_nodes":[],"categories_segments":[],"categories_sizes":[],"default_left":[0,0,0,0,0,0,0],"id":69,"left_children":[1,3,5,-1,-1,-1,-1],"loss_changes":[2.0274442E8,2.0357104E7,2.4754336E7,0E0,0E0,0E0,0E0],"parents":[2147483647,0,0,1,1,2,2],"right_children":[2,4,6,-1,-1,-1,-1],"split_conditions":[1.5268507E0,-1.0651182E0,-1.8661156E-1,-1.4389182E1,6.363306E0,-5.228809E0,-3.1447191E1],"split_indices":[23,15,16,0,0,0,0],"split_type":[0,0,0,0,0,0,0],"sum_hessian":[1.45E2,1.22E2,2.3E1,4E0,1.18E2,5E0,1.8E1],"tree_param":{"num_deleted":"0","num_feature":"25","num_nodes":"7","size_leaf_vector":"1"}},{"base_weights":[-1.6370419E1,-2.4987585E3,5.6785846E2,-2.708333E1,1.5047331E0,-1.3150857E-1,9.088926E0],"categories":[],"categories_nodes":[],"categories_segments":[],"categories_sizes":[],"default_left":[0,0,0,0,0,0,0],"id":70,"left_children":[1,3,5,-1,-1,-1,-1],"loss_changes":[2.1316024E8,1.5953456E7,2.3591088E7,0E0,0E0,0E0,0E0],"parents":[2147483647,0,0,1,1,2,2],"right_children":[2,4,6,-1,-1,-1,-1],"split_conditions":[-4.9280983E-1,3.4306335E-1,-6.728801E-1,-2.708333E1,1.5047331E0,-1.3150857E-1,9.088926E0],"split_indices":[19,1,24,0,0,0,0],"split_type":[0,0,0,0,0,0,0],"sum_hessian":[1.45E2,2.7E1,1.18E2,2.5E1,2E0,4.4E1,7.4E1],"tree_param":{"num_deleted":"0","num_feature":"25","num_nodes":"7","size_leaf_vector":"1"}},{"base_weights":[9.8799225E1,-2.6167644E3,7.111943E2,-2.9662418E1,-4.159196E0,1.1454098E1,3.3676074E0],"categories":[],"categories_nodes":[],"categories_segments":[],"categories_sizes":[],"default_left":[0,0,0,0,0,0,0],"id":71,"left_children":[1,3,5,-1,-1,-1,-1],"loss_changes":[2.5297368E8,2.0302368E7,1.9774796E7,0E0,0E0,0E0,0E0],"parents":[2147483647,0,0,1,1,2,2],"right_children":[2,4,6,-1,-1,-1,-1],"split_conditions":[-4.9280983E-1,1.9363819E0,1.4647421E-2,-2.9662418E1,-4.159196E0,1.1454098E1,3.3676074E0],"split_indices":[19,23,18,0,0,0,0],"split_type":[0,0,0,0,0,0,0],"sum_hessian":[1.5E2,2.7E1,1.23E2,2.3E1,4E0,5.6E1,6.7E1],"tree_param":{"num_deleted":"0","num_feature":"25","num_nodes":"7","size_leaf_vector":"1"}},{"base_weights":[3.9077137E1,-2.5268052E3,6.113064E2,-2.8238718E1,-1.1270435E0,1.1369108E1,1.4098706E0],"categories":[],"categories_nodes":[],"categories_segments":[],"categories_sizes":[],"default_left":[0,0,0,0,0,0,0],"id":72,"left_children":[1,3,5,-1,-1,-1,-1],"loss_changes":[2.1738077E8,1.9044768E7,2.9751144E7,0E0,0E0,0E0,0E0],"parents":[2147483647,0,0,1,1,2,2],"right_children":[2,4,6,-1,-1,-1,-1],"split_conditions":[-4.9280983E-1,1.9363819E0,1.4647421E-2,-2.8238718E1,-1.1270435E0,1.1369108E1,1.4098706E0],"split_indices":[19,23,18,0,0,0,0],"split_type":[0,0,0,0,0,0,0],"sum_hessian":[1.46E2,2.6E1,1.2E2,2.3E1,3E0,5.6E1,6.4E1],"tree_param":{"num_deleted":"0","num_feature":"25","num_nodes":"7","size_leaf_vector":"1"}},{"base_weights":[7.2866735E0,-2.300709E3,5.603824E2,-2.7186281E1,-8.638425E0,-9.7444206E-1,8.401378E0],"categories":[],"categories_nodes":[],"categories_segments":[],"categories_sizes":[],"default_left":[0,0,0,0,0,0,0],"id":73,"left_children":[1,3,5,-1,-1,-1,-1],"loss_changes":[1.9149411E8,1.5065856E7,2.234956E7,0E0,0E0,0E0,0E0],"parents":[2147483647,0,0,1,1,2,2],"right_children":[2,4,6,-1,-1,-1,-1],"split_conditions":[-6.700865E-1,2.3470976E0,-6.085539E-1,-2.7186281E1,-8.638425E0,-9.7444206E-1,8.401378E0],"split_indices":[19,22,17,0,0,0,0],"split_type":[0,0,0,0,0,0,0],"sum_hessian":[1.48E2,2.8E1,1.2E2,2.1E1,7E0,3.6E1,8.4E1],"tree_param":{"num_deleted":"0","num_feature":"25","num_nodes":"7","size_leaf_vector":"1"}},{"base_weights":[6.443545E1,5.611843E2,-2.3622764E3,-1.6013144E1,6.2915745E0,-9.6605835E0,-3.2286846E1],"categories":[],"categories_nodes":[],"categories_segments":[],"categories_sizes":[],"default_left":[0,0,0,0,0,0,0],"id":74,"left_children":[1,3,5,-1,-1,-1,-1],"loss_changes":[1.7732374E8,1.89405E7,2.7123264E7,0E0,0E0,0E0,0E0],"parents":[2147483647,0,0,1,1,2,2],"right_children":[2,4,6,-1,-1,-1,-1],"split_conditions":[1.4586241E0,-1.0651182E0,7.46652E-2,-1.6013144E1,6.2915745E0,-9.6605835E0,-3.2286846E1],"split_indices":[23,15,16,0,0,0,0],"split_type":[0,0,0,0,0,0,0],"sum_hessian":[1.45E2,1.21E2,2.4E1,3E0,1.18E2,1E1,1.4E1],"tree_param":{"num_deleted":"0","num_feature":"25","num_nodes":"7","size_leaf_vector":"1"}},{"base_weights":[1.1899598E2,6.2493066E2,-2.3344878E3,-1.4103136E1,7.065656E0,-2.5631115E1,1.9645686E0],"categories":[],"categories_nodes":[],"categories_segments":[],"categories_sizes":[],"default_left":[0,0,0,0,0,0,0],"id":75,"left_children":[1,3,5,-1,-1,-1,-1],"loss_changes":[1.8144776E8,2.1100276E7,1.4969408E7,0E0,0E0,0E0,0E0],"parents":[2147483647,0,0,1,1,2,2],"right_children":[2,4,6,-1,-1,-1,-1],"split_conditions":[1.466834E0,-1.0651182E0,4.4262746E-1,-1.4103136E1,7.065656E0,-2.5631115E1,1.9645686E0],"split_indices":[23,15,1,0,0,0,0],"split_type":[0,0,0,0,0,0,0],"sum_hessian":[1.44E2,1.2E2,2.4E1,4E0,1.16E2,2.2E1,2E0],"tree_param":{"num_deleted":"0","num_feature":"25","num_nodes":"7","size_leaf_vector":"1"}},{"base_weights":[-8.844861E0,3.4579297E2,-2.1869133E3,6.676612E0,-2.3458147E1,-2.6573132E1,-1.5017109E0],"categories":[],"categories_nodes":[],"categories_segments":[],"categories_sizes":[],"default_left":[0,0,0,0,0,0,0],"id":76,"left_children":[1,3,5,-1,-1,-1,-1],"loss_changes":[1.1584762E8,1.13324456E8,1.9720696E7,0E0,0E0,0E0,0E0],"parents":[2147483647,0,0,1,1,2,2],"right_children":[2,4,6,-1,-1,-1,-1],"split_conditions":[1.5431038E0,2.008016E0,1.5218925E-1,6.676612E0,-2.3458147E1,-2.6573132E1,-1.5017109E0],"split_indices":[22,20,15,0,0,0,0],"split_type":[0,0,0,0,0,0,0],"sum_hessian":[1.48E2,1.28E2,2E1,1.15E2,1.3E1,1.6E1,4E0],"tree_param":{"num_deleted":"0","num_feature":"25","num_nodes":"7","size_leaf_vector":"1"}},{"base_weights":[-5.5330944E1,-2.362154E3,5.17066E2,-2.7012726E1,-1.2630693E0,5.272638E-1,8.782023E0],"categories":[],"categories_nodes":[],"categories_segments":[],"categories_sizes":[],"default_left":[0,0,0,0,0,0,0],"id":77,"left_children":[1,3,5,-1,-1,-1,-1],"loss_changes":[1.9928416E8,2.2405312E7,2.0244174E7,0E0,0E0,0E0,0E0],"parents":[2147483647,0,0,1,1,2,2],"right_children":[2,4,6,-1,-1,-1,-1],"split_conditions":[-4.9280983E-1,1.5218925E-1,-2.156423E-1,-2.7012726E1,-1.2630693E0,5.272638E-1,8.782023E0],"split_indices":[19,15,16,0,0,0,0],"split_type":[0,0,0,0,0,0,0],"sum_hessian":[1.49E2,2.9E1,1.2E2,2.5E1,4E0,5.3E1,6.7E1],"tree_param":{"num_deleted":"0","num_feature":"25","num_nodes":"7","size_leaf_vector":"1"}},{"base_weights":[7.081374E1,-2.216152E3,5.6031586E2,-2.4452444E1,4.316686E0,2.146691E1,4.489602E0],"categories":[],"categories_nodes":[],"categories_segments":[],"categories_sizes":[],"default_left":[0,0,0,0,0,0,0],"id":78,"left_children":[1,3,5,-1,-1,-1,-1],"loss_changes":[1.7140186E8,1.7433616E7,2.129434E7,0E0,0E0,0E0,0E0],"parents":[2147483647,0,0,1,1,2,2],"right_children":[2,4,6,-1,-1,-1,-1],"split_conditions":[-4.9280983E-1,2.6285356E-1,-8.210505E-1,-2.4452444E1,4.316686E0,2.146691E1,4.489602E0],"split_indices":[19,15,3,0,0,0,0],"split_type":[0,0,0,0,0,0,0],"sum_hessian":[1.51E2,2.6E1,1.25E2,2.4E1,2E0,7E0,1.18E2],"tree_param":{"num_deleted":"0","num_feature":"25","num_nodes":"7","size_leaf_vector":"1"}},{"base_weights":[3.4591476E1,-2.4316013E3,5.9746545E2,-2.6341011E1,2.0143132E0,4.9044016E-1,9.1905E0],"categories":[],"categories_nodes":[],"categories_segments":[],"categories_sizes":[],"default_left":[0,0,0,0,0,0,0],"id":79,"left_children":[1,3,5,-1,-1,-1,-1],"loss_changes":[2.1661696E8,1.5993056E7,2.235314E7,0E0,0E0,0E0,0E0],"parents":[2147483647,0,0,1,1,2,2],"right_children":[2,4,6,-1,-1,-1,-1],"split_conditions":[-4.9280983E-1,4.4262746E-1,-6.728801E-1,-2.6341011E1,2.0143132E0,4.9044016E-1,9.1905E0],"split_indices":[19,1,24,0,0,0,0],"split_type":[0,0,0,0,0,0,0],"sum_hessian":[1.54E2,2.8E1,1.26E2,2.6E1,2E0,4.7E1,7.9E1],"tree_param":{"num_deleted":"0","num_feature":"25","num_nodes":"7","size_leaf_vector":"1"}},{"base_weights":[-6.906894E1,-2.09406E3,4.739561E2,-2.5536657E1,-5.1093616E0,1.5142865E0,1.27554245E1],"categories":[],"categories_nodes":[],"categories_segments":[],"categories_sizes":[],"default_left":[0,0,0,0,0,0,0],"id":80,"left_children":[1,3,5,-1,-1,-1,-1],"loss_changes":[1.5603904E8,2.0523624E7,2.8762608E7,0E0,0E0,0E0,0E0],"parents":[2147483647,0,0,1,1,2,2],"right_children":[2,4,6,-1,-1,-1,-1],"split_conditions":[-6.700865E-1,1.5729843E0,2.810441E-1,-2.5536657E1,-5.1093616E0,1.5142865E0,1.27554245E1],"split_indices":[19,14,0,0,0,0,0],"split_type":[0,0,0,0,0,0,0],"sum_hessian":[1.4E2,2.9E1,1.11E2,2.2E1,7E0,8E1,3.1E1],"tree_param":{"num_deleted":"0","num_feature":"25","num_nodes":"7","size_leaf_vector":"1"}},{"base_weights":[-1.3187146E1,-2.2218806E3,4.9512448E2,-3.805602E0,-2.7552485E1,4.161043E0,2.5443981E1],"categories":[],"categories_nodes":[],"categories_segments":[],"categories_sizes":[],"default_left":[0,0,0,0,0,0,0],"id":81,"left_children":[1,3,5,-1,-1,-1,-1],"loss_changes":[1.5603333E8,2.4486088E7,1.7239802E7,0E0,0E0,0E0,0E0],"parents":[2147483647,0,0,1,1,2,2],"right_children":[2,4,6,-1,-1,-1,-1],"split_conditions":[-6.700865E-1,-1.8661156E-1,1.267262E0,-3.805602E0,-2.7552485E1,4.161043E0,2.5443981E1],"split_indices":[19,16,4,0,0,0,0],"split_type":[0,0,0,0,0,0,0],"sum_hessian":[1.37E2,2.5E1,1.12E2,6E0,1.9E1,1.09E2,3E0],"tree_param":{"num_deleted":"0","num_feature":"25","num_nodes":"7","size_leaf_vector":"1"}},{"base_weights":[-6.9747055E1,4.7139368E2,-2.231985E3,-3.3635762E0,6.6638994E0,-1.1766E1,-2.8702084E1],"categories":[],"categories_nodes":[],"categories_segments":[],"categories_sizes":[],"default_left":[0,0,0,0,0,0,0],"id":82,"left_children":[1,3,5,-1,-1,-1,-1],"loss_changes":[1.7539333E8,1.9125162E7,1.6830064E7,0E0,0E0,0E0,0E0],"parents":[2147483647,0,0,1,1,2,2],"right_children":[2,4,6,-1,-1,-1,-1],"split_conditions":[1.466834E0,-7.054592E-1,1.0369595E-1,-3.3635762E0,6.6638994E0,-1.1766E1,-2.8702084E1],"split_indices":[23,15,16,0,0,0,0],"split_type":[0,0,0,0,0,0,0],"sum_hessian":[1.48E2,1.19E2,2.9E1,2.3E1,9.6E1,1.2E1,1.7E1],"tree_param":{"num_deleted":"0","num_feature":"25","num_nodes":"7","size_leaf_vector":"1"}},{"base_weights":[-2.5830387E1,-2.2081343E3,4.2829544E2,-6.903199E0,-2.6289623E1,1.3397339E1,2.4192874E0],"categories":[],"categories_nodes":[],"categories_segments":[],"categories_sizes":[],"default_left":[0,0,0,0,0,0,0],"id":83,"left_children":[1,3,5,-1,-1,-1,-1],"loss_changes":[1.4960181E8,1.47924E7,2.09086E7,0E0,0E0,0E0,0E0],"parents":[2147483647,0,0,1,1,2,2],"right_children":[2,4,6,-1,-1,-1,-1],"split_conditions":[-1.2905548E0,-1.8661156E-1,-1.4570022E-1,-6.903199E0,-2.6289623E1,1.3397339E1,2.4192874E0],"split_indices":[19,16,21,0,0,0,0],"split_type":[0,0,0,0,0,0,0],"sum_hessian":[1.49E2,2.5E1,1.24E2,6E0,1.9E1,2E1,1.04E2],"tree_param":{"num_deleted":"0","num_feature":"25","num_nodes":"7","size_leaf_vector":"1"}},{"base_weights":[-1.7788391E1,-2.1195479E3,4.4211044E2,-2.5856752E1,-6.310192E0,-9.806314E-1,7.783961E0],"categories":[],"categories_nodes":[],"categories_segments":[],"categories_sizes":[],"default_left":[0,0,0,0,0,0,0],"id":84,"left_children":[1,3,5,-1,-1,-1,-1],"loss_changes":[1.5075957E8,1.779604E7,2.332787E7,0E0,0E0,0E0,0E0],"parents":[2147483647,0,0,1,1,2,2],"right_children":[2,4,6,-1,-1,-1,-1],"split_conditions":[-6.700865E-1,4.810464E-1,-6.728801E-1,-2.5856752E1,-6.310192E0,-9.806314E-1,7.783961E0],"split_indices":[19,13,24,0,0,0,0],"split_type":[0,0,0,0,0,0,0],"sum_hessian":[1.54E2,2.7E1,1.27E2,2E1,7E0,4.9E1,7.8E1],"tree_param":{"num_deleted":"0","num_feature":"25","num_nodes":"7","size_leaf_vector":"1"}},{"base_weights":[-7.977924E1,3.5774582E2,-2.1297131E3,2.5082853E0,1.8499634E1,-2.6807001E1,-7.9110413E0],"categories":[],"categories_nodes":[],"categories_segments":[],"categories_sizes":[],"default_left":[0,0,0,0,0,0,0],"id":85,"left_children":[1,3,5,-1,-1,-1,-1],"loss_changes":[1.3260582E8,1.9000328E7,1.7055736E7,0E0,0E0,0E0,0E0],"parents":[2147483647,0,0,1,1,2,2],"right_children":[2,4,6,-1,-1,-1,-1],"split_conditions":[1.466834E0,1.267262E0,4.810464E-1,2.5082853E0,1.8499634E1,-2.6807001E1,-7.9110413E0],"split_indices":[23,4,13,0,0,0,0],"split_type":[0,0,0,0,0,0,0],"sum_hessian":[1.46E2,1.21E2,2.5E1,1.14E2,7E0,1.7E1,8E0],"tree_param":{"num_deleted":"0","num_feature":"25","num_nodes":"7","size_leaf_vector":"1"}},{"base_weights":[5.0720512E1,-2.1717585E3,6.105831E2,-2.5775675E1,-4.7016163E0,1.748523E1,4.2964444E0],"categories":[],"categories_nodes":[],"categories_segments":[],"categories_sizes":[],"default_left":[0,0,0,0,0,0,0],"id":86,"left_children":[1,3,5,-1,-1,-1,-1],"loss_changes":[1.854799E8,1.950384E7,2.375054E7,0E0,0E0,0E0,0E0],"parents":[2147483647,0,0,1,1,2,2],"right_children":[2,4,6,-1,-1,-1,-1],"split_conditions":[-4.9280983E-1,2.3470976E0,-1.1756351E0,-2.5775675E1,-4.7016163E0,1.748523E1,4.2964444E0],"split_indices":[19,22,0,0,0,0,0],"split_type":[0,0,0,0,0,0,0],"sum_hessian":[1.47E2,2.9E1,1.18E2,2.3E1,6E0,1.5E1,1.03E2],"tree_param":{"num_deleted":"0","num_feature":"25","num_nodes":"7","size_leaf_vector":"1"}},{"base_weights":[-1.6797812E2,-2.541485E3,4.2176273E2,-2.6751797E1,6.0097995E0,1.2257478E1,1.5505116E0],"categories":[],"categories_nodes":[],"categories_segments":[],"categories_sizes":[],"default_left":[0,0,0,0,0,0,0],"id":87,"left_children":[1,3,5,-1,-1,-1,-1],"loss_changes":[2.0403624E8,1.3791504E7,2.4898506E7,0E0,0E0,0E0,0E0],"parents":[2147483647,0,0,1,1,2,2],"right_children":[2,4,6,-1,-1,-1,-1],"split_conditions":[-6.700865E-1,3.7109013E0,-4.531198E-2,-2.6751797E1,6.0097995E0,1.2257478E1,1.5505116E0],"split_indices":[19,17,21,0,0,0,0],"split_type":[0,0,0,0,0,0,0],"sum_hessian":[1.44E2,2.8E1,1.16E2,2.7E1,1E0,2.8E1,8.8E1],"tree_param":{"num_deleted":"0","num_feature":"25","num_nodes":"7","size_leaf_vector":"1"}},{"base_weights":[5.7518703E1,5.979982E2,-2.193429E3,9.394071E-1,9.371806E0,-2.435431E1,4.8941648E-1],"categories":[],"categories_nodes":[],"categories_segments":[],"categories_sizes":[],"default_left":[0,0,0,0,0,0,0],"id":88,"left_children":[1,3,5,-1,-1,-1,-1],"loss_changes":[1.9474965E8,2.1966768E7,1.69416E7,0E0,0E0,0E0,0E0],"parents":[2147483647,0,0,1,1,2,2],"right_children":[2,4,6,-1,-1,-1,-1],"split_conditions":[1.4586241E0,-6.728801E-1,1.9363819E0,9.394071E-1,9.371806E0,-2.435431E1,4.8941648E-1],"split_indices":[23,24,23,0,0,0,0],"split_type":[0,0,0,0,0,0,0],"sum_hessian":[1.58E2,1.28E2,3E1,5.2E1,7.6E1,2.7E1,3E0],"tree_param":{"num_deleted":"0","num_feature":"25","num_nodes":"7","size_leaf_vector":"1"}},{"base_weights":[-6.9284256E1,-2.307607E3,4.6846747E2,-2.618827E1,-2.2774081E0,1.2155558E1,2.4028163E0],"categories":[],"categories_nodes":[],"categories_segments":[],"categories_sizes":[],"default_left":[0,0,0,0,0,0,0],"id":89,"left_children":[1,3,5,-1,-1,-1,-1],"loss_changes":[1.8644496E8,1.8822496E7,2.1017294E7,0E0,0E0,0E0,0E0],"parents":[2147483647,0,0,1,1,2,2],"right_children":[2,4,6,-1,-1,-1,-1],"split_conditions":[-4.9280983E-1,1.9363819E0,-4.531198E-2,-2.618827E1,-2.2774081E0,1.2155558E1,2.4028163E0],"split_indices":[19,23,21,0,0,0,0],"split_type":[0,0,0,0,0,0,0],"sum_hessian":[1.53E2,2.9E1,1.24E2,2.5E1,4E0,2.8E1,9.6E1],"tree_param":{"num_deleted":"0","num_feature":"25","num_nodes":"7","size_leaf_vector":"1"}},{"base_weights":[-6.2279728E1,-2.1772566E3,4.628485E2,-8.529458E0,-2.5831543E1,-1.6071354E1,5.2488885E0],"categories":[],"categories_nodes":[],"categories_segments":[],"categories_sizes":[],"default_left":[0,0,0,0,0,0,0],"id":90,"left_children":[1,3,5,-1,-1,-1,-1],"loss_changes":[1.7870918E8,1.4997824E7,1.7410084E7,0E0,0E0,0E0,0E0],"parents":[2147483647,0,0,1,1,2,2],"right_children":[2,4,6,-1,-1,-1,-1],"split_conditions":[-4.9280983E-1,-1.8661156E-1,-1.0651182E0,-8.529458E0,-2.5831543E1,-1.6071354E1,5.2488885E0],"split_indices":[19,16,15,0,0,0,0],"split_type":[0,0,0,0,0,0,0],"sum_hessian":[1.59E2,3.1E1,1.28E2,8E0,2.3E1,3E0,1.25E2],"tree_param":{"num_deleted":"0","num_feature":"25","num_nodes":"7","size_leaf_vector":"1"}},{"base_weights":[-9.607122E0,-2.0505396E3,4.3692194E2,-7.212221E0,-2.7489815E1,1.3553015E1,2.743207E0],"categories":[],"categories_nodes":[],"categories_segments":[],"categories_sizes":[],"default_left":[0,0,0,0,0,0,0],"id":91,"left_children":[1,3,5,-1,-1,-1,-1],"loss_changes":[1.4215296E8,2.4014008E7,1.874241E7,0E0,0E0,0E0,0E0],"parents":[2147483647,0,0,1,1,2,2],"right_children":[2,4,6,-1,-1,-1,-1],"split_conditions":[-4.9280983E-1,1.0369595E-1,-1.1756351E0,-7.212221E0,-2.7489815E1,1.3553015E1,2.743207E0],"split_indices":[19,16,0,0,0,0,0],"split_type":[0,0,0,0,0,0,0],"sum_hessian":[1.54E2,2.7E1,1.27E2,1E1,1.7E1,1.8E1,1.09E2],"tree_param":{"num_deleted":"0","num_feature":"25","num_nodes":"7","size_leaf_vector":"1"}},{"base_weights":[-1.5344761E1,-2.2697197E3,4.1329962E2,-2.6943058E1,-2.023492E0,1.5318562E1,2.4056184E0],"categories":[],"categories_nodes":[],"categories_segments":[],"categories_sizes":[],"default_left":[0,0,0,0,0,0,0],"id":92,"left_children":[1,3,5,-1,-1,-1,-1],"loss_changes":[1.391226E8,1.9643656E7,2.3010748E7,0E0,0E0,0E0,0E0],"parents":[2147483647,0,0,1,1,2,2],"right_children":[2,4,6,-1,-1,-1,-1],"split_conditions":[-1.2905548E0,1.9363819E0,-1.1756351E0,-2.6943058E1,-2.023492E0,1.5318562E1,2.4056184E0],"split_indices":[19,23,0,0,0,0,0],"split_type":[0,0,0,0,0,0,0],"sum_hessian":[1.42E2,2.2E1,1.2E2,1.8E1,4E0,1.5E1,1.05E2],"tree_param":{"num_deleted":"0","num_feature":"25","num_nodes":"7","size_leaf_vector":"1"}},{"base_weights":[3.4972485E1,-1.9678058E3,5.1747284E2,-3.0281061E1,-1.2694275E1,-1.5989433E1,5.90392E0],"categories":[],"categories_nodes":[],"categories_segments":[],"categories_sizes":[],"default_left":[0,0,0,0,0,0,0],"id":93,"left_children":[1,3,5,-1,-1,-1,-1],"loss_changes":[1.3437338E8,1.614928E7,1.8228668E7,0E0,0E0,0E0,0E0],"parents":[2147483647,0,0,1,1,2,2],"right_children":[2,4,6,-1,-1,-1,-1],"split_conditions":[-4.9280983E-1,-4.7415233E-1,-1.0651182E0,-3.0281061E1,-1.2694275E1,-1.5989433E1,5.90392E0],"split_indices":[19,2,15,0,0,0,0],"split_type":[0,0,0,0,0,0,0],"sum_hessian":[1.37E2,2.6E1,1.11E2,9E0,1.7E1,3E0,1.08E2],"tree_param":{"num_deleted":"0","num_feature":"25","num_nodes":"7","size_leaf_vector":"1"}},{"base_weights":[1.19837944E2,-2.109384E3,5.7566345E2,-2.2734976E1,9.1467285E0,1.0438365E1,2.009241E0],"categories":[],"categories_nodes":[],"categories_segments":[],"categories_sizes":[],"default_left":[0,0,0,0,0,0,0],"id":94,"left_children":[1,3,5,-1,-1,-1,-1],"loss_changes":[1.4957018E8,1.4486744E7,2.11943E7,0E0,0E0,0E0,0E0],"parents":[2147483647,0,0,1,1,2,2],"right_children":[2,4,6,-1,-1,-1,-1],"split_conditions":[-4.9280983E-1,4.4262746E-1,1.4647421E-2,-2.2734976E1,9.1467285E0,1.0438365E1,2.009241E0],"split_indices":[19,1,18,0,0,0,0],"split_type":[0,0,0,0,0,0,0],"sum_hessian":[1.45E2,2.4E1,1.21E2,2.3E1,1E0,5.3E1,6.8E1],"tree_param":{"num_deleted":"0","num_feature":"25","num_nodes":"7","size_leaf_vector":"1"}},{"base_weights":[5.3476284E1,4.509412E2,-2.074422E3,1.3306743E1,2.8745673E0,-2.4740774E1,-1.4084697E0],"categories":[],"categories_nodes":[],"categories_segments":[],"categories_sizes":[],"default_left":[0,0,0,0,0,0,0],"id":95,"left_children":[1,3,5,-1,-1,-1,-1],"loss_changes":[1.2357136E8,1.7307678E7,1.7425104E7,0E0,0E0,0E0,0E0],"parents":[2147483647,0,0,1,1,2,2],"right_children":[2,4,6,-1,-1,-1,-1],"split_conditions":[1.466834E0,-1.1756351E0,1.5218925E-1,1.3306743E1,2.8745673E0,-2.4740774E1,-1.4084697E0],"split_indices":[23,0,15,0,0,0,0],"split_type":[0,0,0,0,0,0,0],"sum_hessian":[1.44E2,1.22E2,2.2E1,1.8E1,1.04E2,1.8E1,4E0],"tree_param":{"num_deleted":"0","num_feature":"25","num_nodes":"7","size_leaf_vector":"1"}},{"base_weights":[-1.0882845E1,-1.9321198E3,4.30146E2,-2.5464548E1,-5.716714E0,-1.0289625E0,7.541307E0],"categories":[],"categories_nodes":[],"categories_segments":[],"categories_sizes":[],"default_left":[0,0,0,0,0,0,0],"id":96,"left_children":[1,3,5,-1,-1,-1,-1],"loss_changes":[1.2708191E8,2.194584E7,2.1146698E7,0E0,0E0,0E0,0E0],"parents":[2147483647,0,0,1,1,2,2],"right_children":[2,4,6,-1,-1,-1,-1],"split_conditions":[-6.700865E-1,1.7557006E-1,-2.8786352E-1,-2.5464548E1,-5.716714E0,-1.0289625E0,7.541307E0],"split_indices":[19,13,17,0,0,0,0],"split_type":[0,0,0,0,0,0,0],"sum_hessian":[1.48E2,2.7E1,1.21E2,1.8E1,9E0,4.6E1,7.5E1],"tree_param":{"num_deleted":"0","num_feature":"25","num_nodes":"7","size_leaf_vector":"1"}},{"base_weights":[4.099598E1,4.265051E2,-1.9685723E3,1.7515676E1,3.2093189E0,-2.2267687E1,5.8105936E0],"categories":[],"categories_nodes":[],"categories_segments":[],"categories_sizes":[],"default_left":[0,0,0,0,0,0,0],"id":97,"left_children":[1,3,5,-1,-1,-1,-1],"loss_changes":[1.1549624E8,1.6924258E7,1.7093216E7,0E0,0E0,0E0,0E0],"parents":[2147483647,0,0,1,1,2,2],"right_children":[2,4,6,-1,-1,-1,-1],"split_conditions":[1.466834E0,-1.0069647E0,2.6285356E-1,1.7515676E1,3.2093189E0,-2.2267687E1,5.8105936E0],"split_indices":[23,5,15,0,0,0,0],"split_type":[0,0,0,0,0,0,0],"sum_hessian":[1.47E2,1.24E2,2.3E1,8E0,1.16E2,2.1E1,2E0],"tree_param":{"num_deleted":"0","num_feature":"25","num_nodes":"7","size_leaf_vector":"1"}},{"base_weights":[4.9773655E0,-1.8350587E3,4.2723993E2,-7.983228E0,-2.6803415E1,3.428593E-1,8.89752E0],"categories":[],"categories_nodes":[],"categories_segments":[],"categories_sizes":[],"default_left":[0,0,0,0,0,0,0],"id":98,"left_children":[1,3,5,-1,-1,-1,-1],"loss_changes":[1.16553784E8,2.2397608E7,2.2142502E7,0E0,0E0,0E0,0E0],"parents":[2147483647,0,0,1,1,2,2],"right_children":[2,4,6,-1,-1,-1,-1],"split_conditions":[-4.9280983E-1,1.0369595E-1,1.66037E-2,-7.983228E0,-2.6803415E1,3.428593E-1,8.89752E0],"split_indices":[19,16,16,0,0,0,0],"split_type":[0,0,0,0,0,0,0],"sum_hessian":[1.48E2,2.7E1,1.21E2,1.3E1,1.4E1,6.6E1,5.5E1],"tree_param":{"num_deleted":"0","num_feature":"25","num_nodes":"7","size_leaf_vector":"1"}},{"base_weights":[-2.350879E1,-1.8846031E3,3.819191E2,-2.2694233E1,-4.6091356E0,1.5173759E-1,8.570487E0],"categories":[],"categories_nodes":[],"categories_segments":[],"categories_sizes":[],"default_left":[0,0,0,0,0,0,0],"id":99,"left_children":[1,3,5,-1,-1,-1,-1],"loss_changes":[1.139007E8,1.3746328E7,2.1594192E7,0E0,0E0,0E0,0E0],"parents":[2147483647,0,0,1,1,2,2],"right_children":[2,4,6,-1,-1,-1,-1],"split_conditions":[-4.9280983E-1,2.3470976E0,-8.030473E-2,-2.2694233E1,-4.6091356E0,1.5173759E-1,8.570487E0],"split_indices":[19,22,4,0,0,0,0],"split_type":[0,0,0,0,0,0,0],"sum_hessian":[1.49E2,2.6E1,1.23E2,2E1,6E0,7E1,5.3E1],"tree_param":{"num_deleted":"0","num_feature":"25","num_nodes":"7","size_leaf_vector":"1"}},{"base_weights":[-2.3047213E1,4.7614566E2,-2.0018104E3,5.5068116E0,-1.7298841E1,-7.3537726E0,-2.4492432E1],"categories":[],"categories_nodes":[],"categories_segments":[],"categories_sizes":[],"default_left":[0,0,0,0,0,0,0],"id":100,"left_children":[1,3,5,-1,-1,-1,-1],"loss_changes":[1.4220634E8,1.9861776E7,1.4631544E7,0E0,0E0,0E0,0E0],"parents":[2147483647,0,0,1,1,2,2],"right_children":[2,4,6,-1,-1,-1,-1],"split_conditions":[1.4586241E0,2.5826037E0,-1.8661156E-1,5.5068116E0,-1.7298841E1,-7.3537726E0,-2.4492432E1],"split_indices":[23,6,16,0,0,0,0],"split_type":[0,0,0,0,0,0,0],"sum_hessian":[1.42E2,1.14E2,2.8E1,1.11E2,3E0,8E0,2E1],"tree_param":{"num_deleted":"0","num_feature":"25","num_nodes":"7","size_leaf_vector":"1"}},{"base_weights":[1.3579104E1,4.345141E2,-1.9262135E3,-8.3353424E-1,7.424276E0,-2.2214045E1,-1.2405351E0],"categories":[],"categories_nodes":[],"categories_segments":[],"categories_sizes":[],"default_left":[0,0,0,0,0,0,0],"id":101,"left_children":[1,3,5,-1,-1,-1,-1],"loss_changes":[1.2821511E8,2.0632018E7,1.4619904E7,0E0,0E0,0E0,0E0],"parents":[2147483647,0,0,1,1,2,2],"right_children":[2,4,6,-1,-1,-1,-1],"split_conditions":[1.466834E0,-6.728801E-1,1.9363819E0,-8.3353424E-1,7.424276E0,-2.2214045E1,-1.2405351E0],"split_indices":[23,24,23,0,0,0,0],"split_type":[0,0,0,0,0,0,0],"sum_hessian":[1.55E2,1.28E2,2.7E1,4.8E1,8E1,2.3E1,4E0],"tree_param":{"num_deleted":"0","num_feature":"25","num_nodes":"7","size_leaf_vector":"1"}},{"base_weights":[-2.1660875E1,-1.9084987E3,4.22483E2,-2.2688068E1,-2.0923412E0,1.1331591E1,2.404131E0],"categories":[],"categories_nodes":[],"categories_segments":[],"categories_sizes":[],"default_left":[0,0,0,0,0,0,0],"id":102,"left_children":[1,3,5,-1,-1,-1,-1],"loss_changes":[1.2315831E8,1.6668536E7,1.5125308E7,0E0,0E0,0E0,0E0],"parents":[2147483647,0,0,1,1,2,2],"right_children":[2,4,6,-1,-1,-1,-1],"split_conditions":[-4.9280983E-1,2.3470976E0,-6.239464E-1,-2.2688068E1,-2.0923412E0,1.1331591E1,2.404131E0],"split_indices":[19,22,23,0,0,0,0],"split_type":[0,0,0,0,0,0,0],"sum_hessian":[1.45E2,2.7E1,1.18E2,2.2E1,5E0,2.3E1,9.5E1],"tree_param":{"num_deleted":"0","num_feature":"25","num_nodes":"7","size_leaf_vector":"1"}},{"base_weights":[-2.2306492E1,-1.9264452E3,4.3804623E2,-2.3320627E1,-5.7019086E0,3.446846E0,2.1544699E1],"categories":[],"categories_nodes":[],"categories_segments":[],"categories_sizes":[],"default_left":[0,0,0,0,0,0,0],"id":103,"left_children":[1,3,5,-1,-1,-1,-1],"loss_changes":[1.3057704E8,1.4623792E7,1.8487162E7,0E0,0E0,0E0,0E0],"parents":[2147483647,0,0,1,1,2,2],"right_children":[2,4,6,-1,-1,-1,-1],"split_conditions":[-4.9280983E-1,9.774455E-1,1.267262E0,-2.3320627E1,-5.7019086E0,3.446846E0,2.1544699E1],"split_indices":[19,13,4,0,0,0,0],"split_type":[0,0,0,0,0,0,0],"sum_hessian":[1.47E2,2.8E1,1.19E2,2.1E1,7E0,1.14E2,5E0],"tree_param":{"num_deleted":"0","num_feature":"25","num_nodes":"7","size_leaf_vector":"1"}},{"base_weights":[-6.0626232E1,-1.8673235E3,3.875875E2,-2.1573898E1,-1.0153965E0,-1.3854005E0,7.925686E0],"categories":[],"categories_nodes":[],"categories_segments":[],"categories_sizes":[],"default_left":[0,0,0,0,0,0,0],"id":104,"left_children":[1,3,5,-1,-1,-1,-1],"loss_changes":[1.1409386E8,1.41224E7,2.4186906E7,0E0,0E0,0E0,0E0],"parents":[2147483647,0,0,1,1,2,2],"right_children":[2,4,6,-1,-1,-1,-1],"split_conditions":[-4.9280983E-1,1.9363819E0,-4.41342E-1,-2.1573898E1,-1.0153965E0,-1.3854005E0,7.925686E0],"split_indices":[19,23,15,0,0,0,0],"split_type":[0,0,0,0,0,0,0],"sum_hessian":[1.39E2,2.7E1,1.12E2,2.3E1,4E0,4.9E1,6.3E1],"tree_param":{"num_deleted":"0","num_feature":"25","num_nodes":"7","size_leaf_vector":"1"}},{"base_weights":[-5.2122253E1,-1.8619996E3,4.0458737E2,-2.1444075E0,-2.1829338E1,-9.781185E-1,7.700623E0],"categories":[],"categories_nodes":[],"categories_segments":[],"categories_sizes":[],"default_left":[0,0,0,0,0,0,0],"id":105,"left_children":[1,3,5,-1,-1,-1,-1],"loss_changes":[1.2308844E8,1.5394632E7,2.1925426E7,0E0,0E0,0E0,0E0],"parents":[2147483647,0,0,1,1,2,2],"right_children":[2,4,6,-1,-1,-1,-1],"split_conditions":[-4.9280983E-1,-5.2949363E-1,-4.41342E-1,-2.1444075E0,-2.1829338E1,-9.781185E-1,7.700623E0],"split_indices":[19,4,15,0,0,0,0],"split_type":[0,0,0,0,0,0,0],"sum_hessian":[1.47E2,2.9E1,1.18E2,5E0,2.4E1,5E1,6.8E1],"tree_param":{"num_deleted":"0","num_feature":"25","num_nodes":"7","size_leaf_vector":"1"}},{"base_weights":[-2.4821938E1,-1.7835813E3,3.941273E2,-7.4158587E0,-2.4370457E1,2.0296718E-1,8.320615E0],"categories":[],"categories_nodes":[],"categories_segments":[],"categories_sizes":[],"default_left":[0,0,0,0,0,0,0],"id":106,"left_children":[1,3,5,-1,-1,-1,-1],"loss_changes":[1.1491174E8,1.861992E7,2.061097E7,0E0,0E0,0E0,0E0],"parents":[2147483647,0,0,1,1,2,2],"right_children":[2,4,6,-1,-1,-1,-1],"split_conditions":[-4.9280983E-1,7.46652E-2,-8.030473E-2,-7.4158587E0,-2.4370457E1,2.0296718E-1,8.320615E0],"split_indices":[19,16,4,0,0,0,0],"split_type":[0,0,0,0,0,0,0],"sum_hessian":[1.54E2,2.9E1,1.25E2,1.2E1,1.7E1,6.8E1,5.7E1],"tree_param":{"num_deleted":"0","num_feature":"25","num_nodes":"7","size_leaf_vector":"1"}},{"base_weights":[-2.4142395E1,-1.9016919E3,3.794975E2,-2.3433632E1,-3.681035E0,8.147267E0,1.6555656E-1],"categories":[],"categories_nodes":[],"categories_segments":[],"categories_sizes":[],"default_left":[0,0,0,0,0,0,0],"id":107,"left_children":[1,3,5,-1,-1,-1,-1],"loss_changes":[1.1136836E8,1.6748296E7,1.9100022E7,0E0,0E0,0E0,0E0],"parents":[2147483647,0,0,1,1,2,2],"right_children":[2,4,6,-1,-1,-1,-1],"split_conditions":[-4.9280983E-1,2.3470976E0,1.4647421E-2,-2.3433632E1,-3.681035E0,8.147267E0,1.6555656E-1],"split_indices":[19,22,18,0,0,0,0],"split_type":[0,0,0,0,0,0,0],"sum_hessian":[1.45E2,2.5E1,1.2E2,1.9E1,6E0,5.4E1,6.6E1],"tree_param":{"num_deleted":"0","num_feature":"25","num_nodes":"7","size_leaf_vector":"1"}},{"base_weights":[2.6475645E1,-1.7703639E3,4.4551758E2,-2.5043098E1,-8.575387E0,1.4274033E1,2.6960046E0],"categories":[],"categories_nodes":[],"categories_segments":[],"categories_sizes":[],"default_left":[0,0,0,0,0,0,0],"id":108,"left_children":[1,3,5,-1,-1,-1,-1],"loss_changes":[1.1147254E8,1.6611456E7,2.0342832E7,0E0,0E0,0E0,0E0],"parents":[2147483647,0,0,1,1,2,2],"right_children":[2,4,6,-1,-1,-1,-1],"split_conditions":[-4.9280983E-1,-3.0415225E-1,-1.1756351E0,-2.5043098E1,-8.575387E0,1.4274033E1,2.6960046E0],"split_indices":[19,2,0,0,0,0,0],"split_type":[0,0,0,0,0,0,0],"sum_hessian":[1.46E2,2.7E1,1.19E2,1.4E1,1.3E1,1.7E1,1.02E2],"tree_param":{"num_deleted":"0","num_feature":"25","num_nodes":"7","size_leaf_vector":"1"}},{"base_weights":[5.03825E1,-1.8806964E3,5.7658234E2,-2.2925495E1,-1.999573E0,3.0757537E0,1.1209973E1],"categories":[],"categories_nodes":[],"categories_segments":[],"categories_sizes":[],"default_left":[0,0,0,0,0,0,0],"id":109,"left_children":[1,3,5,-1,-1,-1,-1],"loss_changes":[1.4232693E8,2.030812E7,1.5764868E7,0E0,0E0,0E0,0E0],"parents":[2147483647,0,0,1,1,2,2],"right_children":[2,4,6,-1,-1,-1,-1],"split_conditions":[-4.9280983E-1,2.3470976E0,3.5305023E-1,-2.2925495E1,-1.999573E0,3.0757537E0,1.1209973E1],"split_indices":[19,22,12,0,0,0,0],"split_type":[0,0,0,0,0,0,0],"sum_hessian":[1.38E2,2.9E1,1.09E2,2.3E1,6E0,7.4E1,3.5E1],"tree_param":{"num_deleted":"0","num_feature":"25","num_nodes":"7","size_leaf_vector":"1"}},{"base_weights":[2.0787605E1,-1.7054521E3,4.409087E2,-2.1659771E1,-4.925685E0,1.3172037E1,2.5375443E0],"categories":[],"categories_nodes":[],"categories_segments":[],"categories_sizes":[],"default_left":[0,0,0,0,0,0,0],"id":110,"left_children":[1,3,5,-1,-1,-1,-1],"loss_changes":[1.0373457E8,1.457288E7,1.8526022E7,0E0,0E0,0E0,0E0],"parents":[2147483647,0,0,1,1,2,2],"right_children":[2,4,6,-1,-1,-1,-1],"split_conditions":[-4.9280983E-1,4.810464E-1,-1.1756351E0,-2.1659771E1,-4.925685E0,1.3172037E1,2.5375443E0],"split_indices":[19,13,0,0,0,0,0],"split_type":[0,0,0,0,0,0,0],"sum_hessian":[1.41E2,2.7E1,1.14E2,1.9E1,8E0,1.9E1,9.5E1],"tree_param":{"num_deleted":"0","num_feature":"25","num_nodes":"7","size_leaf_vector":"1"}},{"base_weights":[-2.2733002E1,-1.8865007E3,4.2048007E2,-2.3585651E1,-3.5251079E0,-1.6154877E1,4.853825E0],"categories":[],"categories_nodes":[],"categories_segments":[],"categories_sizes":[],"default_left":[0,0,0,0,0,0,0],"id":111,"left_children":[1,3,5,-1,-1,-1,-1],"loss_changes":[1.2470018E8,2.0168704E7,1.6905124E7,0E0,0E0,0E0,0E0],"parents":[2147483647,0,0,1,1,2,2],"right_children":[2,4,6,-1,-1,-1,-1],"split_conditions":[-4.9280983E-1,2.3470976E0,-1.0651182E0,-2.3585651E1,-3.5251079E0,-1.6154877E1,4.853825E0],"split_indices":[19,22,15,0,0,0,0],"split_type":[0,0,0,0,0,0,0],"sum_hessian":[1.49E2,2.8E1,1.21E2,2.1E1,7E0,3E0,1.18E2],"tree_param":{"num_deleted":"0","num_feature":"25","num_nodes":"7","size_leaf_vector":"1"}},{"base_weights":[-5.8813744E1,-1.6775399E3,3.367715E2,-7.244341E0,-2.325648E1,1.9945093E1,2.234492E0],"categories":[],"categories_nodes":[],"categories_segments":[],"categories_sizes":[],"default_left":[0,0,0,0,0,0,0],"id":112,"left_children":[1,3,5,-1,-1,-1,-1],"loss_changes":[1.0109899E8,1.74644E7,2.3412376E7,0E0,0E0,0E0,0E0],"parents":[2147483647,0,0,1,1,2,2],"right_children":[2,4,6,-1,-1,-1,-1],"split_conditions":[-6.700865E-1,1.0369595E-1,-8.210505E-1,-7.244341E0,-2.325648E1,1.9945093E1,2.234492E0],"split_indices":[19,16,3,0,0,0,0],"split_type":[0,0,0,0,0,0,0],"sum_hessian":[1.56E2,3E1,1.26E2,1.3E1,1.7E1,7E0,1.19E2],"tree_param":{"num_deleted":"0","num_feature":"25","num_nodes":"7","size_leaf_vector":"1"}},{"base_weights":[5.2962833E1,-1.6367185E3,4.9641333E2,-3.9956923E0,-2.1246626E1,1.5130675E0,1.0145252E1],"categories":[],"categories_nodes":[],"categories_segments":[],"categories_sizes":[],"default_left":[0,0,0,0,0,0,0],"id":113,"left_children":[1,3,5,-1,-1,-1,-1],"loss_changes":[1.1170741E8,1.7864504E7,2.0945342E7,0E0,0E0,0E0,0E0],"parents":[2147483647,0,0,1,1,2,2],"right_children":[2,4,6,-1,-1,-1,-1],"split_conditions":[-4.9280983E-1,2.5539905E-1,5.2018613E-2,-3.9956923E0,-2.1246626E1,1.5130675E0,1.0145252E1],"split_indices":[19,17,3,0,0,0,0],"split_type":[0,0,0,0,0,0,0],"sum_hessian":[1.47E2,3E1,1.17E2,9E0,2.1E1,7.1E1,4.6E1],"tree_param":{"num_deleted":"0","num_feature":"25","num_nodes":"7","size_leaf_vector":"1"}},{"base_weights":[-2.972126E1,-1.6366067E3,3.6585944E2,-2.081491E1,-3.178344E0,-2.3839989E0,7.4076777E0],"categories":[],"categories_nodes":[],"categories_segments":[],"categories_sizes":[],"default_left":[0,0,0,0,0,0,0],"id":114,"left_children":[1,3,5,-1,-1,-1,-1],"loss_changes":[9.9760616E7,1.7526176E7,2.872087E7,0E0,0E0,0E0,0E0],"parents":[2147483647,0,0,1,1,2,2],"right_children":[2,4,6,-1,-1,-1,-1],"split_conditions":[-4.9280983E-1,4.810464E-1,-6.728801E-1,-2.081491E1,-3.178344E0,-2.3839989E0,7.4076777E0],"split_indices":[19,13,24,0,0,0,0],"split_type":[0,0,0,0,0,0,0],"sum_hessian":[1.55E2,3E1,1.25E2,2.2E1,8E0,4.8E1,7.7E1],"tree_param":{"num_deleted":"0","num_feature":"25","num_nodes":"7","size_leaf_vector":"1"}},{"base_weights":[3.2971703E1,-1.6169468E3,4.217088E2,-2.0152752E1,-3.1942534E0,1.4285921E0,1.0659846E1],"categories":[],"categories_nodes":[],"categories_segments":[],"categories_sizes":[],"default_left":[0,0,0,0,0,0,0],"id":115,"left_children":[1,3,5,-1,-1,-1,-1],"loss_changes":[9.7530936E7,1.4344624E7,2.1945408E7,0E0,0E0,0E0,0E0],"parents":[2147483647,0,0,1,1,2,2],"right_children":[2,4,6,-1,-1,-1,-1],"split_conditions":[-4.9280983E-1,2.3470976E0,2.1863508E-1,-2.0152752E1,-3.1942534E0,1.4285921E0,1.0659846E1],"split_indices":[19,22,17,0,0,0,0],"split_type":[0,0,0,0,0,0,0],"sum_hessian":[1.5E2,2.8E1,1.22E2,2.1E1,7E0,8.6E1,3.6E1],"tree_param":{"num_deleted":"0","num_feature":"25","num_nodes":"7","size_leaf_vector":"1"}},{"base_weights":[-8.654077E0,3.4921738E2,-1.5458553E3,-1.6054653E1,4.1531925E0,-1.7830502E1,2.637776E0],"categories":[],"categories_nodes":[],"categories_segments":[],"categories_sizes":[],"default_left":[0,0,0,0,0,0,0],"id":116,"left_children":[1,3,5,-1,-1,-1,-1],"loss_changes":[7.865695E7,1.5654934E7,1.2059684E7,0E0,0E0,0E0,0E0],"parents":[2147483647,0,0,1,1,2,2],"right_children":[2,4,6,-1,-1,-1,-1],"split_conditions":[1.4586241E0,-1.0651182E0,1.9363819E0,-1.6054653E1,4.1531925E0,-1.7830502E1,2.637776E0],"split_indices":[23,15,23,0,0,0,0],"split_type":[0,0,0,0,0,0,0],"sum_hessian":[1.41E2,1.15E2,2.6E1,3E0,1.12E2,2.3E1,3E0],"tree_param":{"num_deleted":"0","num_feature":"25","num_nodes":"7","size_leaf_vector":"1"}},{"base_weights":[-3.0686514E1,3.4442917E2,-1.6828376E3,2.00541E0,1.409266E1,-2.0661816E1,-2.9240024E0],"categories":[],"categories_nodes":[],"categories_segments":[],"categories_sizes":[],"default_left":[0,0,0,0,0,0,0],"id":117,"left_children":[1,3,5,-1,-1,-1,-1],"loss_changes":[9.044305E7,1.795026E7,1.378728E7,0E0,0E0,0E0,0E0],"parents":[2147483647,0,0,1,1,2,2],"right_children":[2,4,6,-1,-1,-1,-1],"split_conditions":[1.4586241E0,9.195323E-1,2.3470976E0,2.00541E0,1.409266E1,-2.0661816E1,-2.9240024E0],"split_indices":[23,13,22,0,0,0,0],"split_type":[0,0,0,0,0,0,0],"sum_hessian":[1.44E2,1.18E2,2.6E1,1.05E2,1.3E1,2E1,6E0],"tree_param":{"num_deleted":"0","num_feature":"25","num_nodes":"7","size_leaf_vector":"1"}},{"base_weights":[-6.162419E1,-1.5784106E3,3.2452173E2,-2.0158936E1,-3.3362868E0,1.2029896E1,1.2193601E0],"categories":[],"categories_nodes":[],"categories_segments":[],"categories_sizes":[],"default_left":[0,0,0,0,0,0,0],"id":118,"left_children":[1,3,5,-1,-1,-1,-1],"loss_changes":[8.6610264E7,1.5664576E7,2.0853188E7,0E0,0E0,0E0,0E0],"parents":[2147483647,0,0,1,1,2,2],"right_children":[2,4,6,-1,-1,-1,-1],"split_conditions":[-4.9280983E-1,4.810464E-1,-1.4570022E-1,-2.0158936E1,-3.3362868E0,1.2029896E1,1.2193601E0],"split_indices":[19,13,21,0,0,0,0],"split_type":[0,0,0,0,0,0,0],"sum_hessian":[1.46E2,2.9E1,1.17E2,2.1E1,8E0,2.1E1,9.6E1],"tree_param":{"num_deleted":"0","num_feature":"25","num_nodes":"7","size_leaf_vector":"1"}},{"base_weights":[-2.9282068E1,-1.6922954E3,3.8670743E2,-2.0214413E1,-2.7501812E0,1.2314537E1,1.8214681E0],"categories":[],"categories_nodes":[],"categories_segments":[],"categories_sizes":[],"default_left":[0,0,0,0,0,0,0],"id":119,"left_children":[1,3,5,-1,-1,-1,-1],"loss_changes":[1.07191016E8,1.3905288E7,2.1203122E7,0E0,0E0,0E0,0E0],"parents":[2147483647,0,0,1,1,2,2],"right_children":[2,4,6,-1,-1,-1,-1],"split_conditions":[-4.9280983E-1,2.3470976E0,-1.4570022E-1,-2.0214413E1,-2.7501812E0,1.2314537E1,1.8214681E0],"split_indices":[19,22,21,0,0,0,0],"split_type":[0,0,0,0,0,0,0],"sum_hessian":[1.53E2,3E1,1.23E2,2.4E1,6E0,2.3E1,1E2],"tree_param":{"num_deleted":"0","num_feature":"25","num_nodes":"7","size_leaf_vector":"1"}},{"base_weights":[-6.2288986E1,-1.6750153E3,2.951364E2,-2.0529387E1,-3.0195687E0,-1.569313E0,5.7082124E0],"categories":[],"categories_nodes":[],"categories_segments":[],"categories_sizes":[],"default_left":[0,0,0,0,0,0,0],"id":120,"left_children":[1,3,5,-1,-1,-1,-1],"loss_changes":[8.5805896E7,1.3390704E7,1.5294219E7,0E0,0E0,0E0,0E0],"parents":[2147483647,0,0,1,1,2,2],"right_children":[2,4,6,-1,-1,-1,-1],"split_conditions":[-4.9280983E-1,9.774455E-1,-4.0635213E-1,-2.0529387E1,-3.0195687E0,-1.569313E0,5.7082124E0],"split_indices":[19,13,17,0,0,0,0],"split_type":[0,0,0,0,0,0,0],"sum_hessian":[1.47E2,2.6E1,1.21E2,2E1,6E0,4.6E1,7.5E1],"tree_param":{"num_deleted":"0","num_feature":"25","num_nodes":"7","size_leaf_vector":"1"}},{"base_weights":[-7.9887955E1,3.0052267E2,-1.5866821E3,1.1084198E1,1.2332406E0,-1.9388432E1,-1.0229478E0],"categories":[],"categories_nodes":[],"categories_segments":[],"categories_sizes":[],"default_left":[0,0,0,0,0,0,0],"id":121,"left_children":[1,3,5,-1,-1,-1,-1],"loss_changes":[8.817652E7,1.7471768E7,1.6006712E7,0E0,0E0,0E0,0E0],"parents":[2147483647,0,0,1,1,2,2],"right_children":[2,4,6,-1,-1,-1,-1],"split_conditions":[1.4586241E0,-1.4570022E-1,2.3470976E0,1.1084198E1,1.2332406E0,-1.9388432E1,-1.0229478E0],"split_indices":[23,21,22,0,0,0,0],"split_type":[0,0,0,0,0,0,0],"sum_hessian":[1.52E2,1.22E2,3E1,2.1E1,1.01E2,2.4E1,6E0],"tree_param":{"num_deleted":"0","num_feature":"25","num_nodes":"7","size_leaf_vector":"1"}},{"base_weights":[1.8271366E1,4.057707E2,-1.712289E3,1.9491657E1,2.97695E0,-2.0093767E1,5.6191015E-1],"categories":[],"categories_nodes":[],"categories_segments":[],"categories_sizes":[],"default_left":[0,0,0,0,0,0,0],"id":122,"left_children":[1,3,5,-1,-1,-1,-1],"loss_changes":[1.0262462E8,2.027018E7,1.4823928E7,0E0,0E0,0E0,0E0],"parents":[2147483647,0,0,1,1,2,2],"right_children":[2,4,6,-1,-1,-1,-1],"split_conditions":[1.4586241E0,-8.210505E-1,1.9363819E0,1.9491657E1,2.97695E0,-2.0093767E1,5.6191015E-1],"split_indices":[23,3,23,0,0,0,0],"split_type":[0,0,0,0,0,0,0],"sum_hessian":[1.51E2,1.24E2,2.7E1,7E0,1.17E2,2.3E1,4E0],"tree_param":{"num_deleted":"0","num_feature":"25","num_nodes":"7","size_leaf_vector":"1"}},{"base_weights":[-1.1694794E2,2.118312E2,-1.6956272E3,-1.9160173E0,6.856963E0,-2.0026365E1,5.5741405E-1],"categories":[],"categories_nodes":[],"categories_segments":[],"categories_sizes":[],"default_left":[0,0,0,0,0,0,0],"id":123,"left_children":[1,3,5,-1,-1,-1,-1],"loss_changes":[8.132893E7,2.4983844E7,1.4629168E7,0E0,0E0,0E0,0E0],"parents":[2147483647,0,0,1,1,2,2],"right_children":[2,4,6,-1,-1,-1,-1],"split_conditions":[1.8465717E0,-8.030473E-2,1.9363819E0,-1.9160173E0,6.856963E0,-2.0026365E1,5.5741405E-1],"split_indices":[23,4,23,0,0,0,0],"split_type":[0,0,0,0,0,0,0],"sum_hessian":[1.55E2,1.29E2,2.6E1,7E1,5.9E1,2.2E1,4E0],"tree_param":{"num_deleted":"0","num_feature":"25","num_nodes":"7","size_leaf_vector":"1"}},{"base_weights":[5.916249E0,-1.5495266E3,3.2181937E2,-2.0483269E1,-3.7975633E0,1.14781626E-1,6.319812E0],"categories":[],"categories_nodes":[],"categories_segments":[],"categories_sizes":[],"default_left":[0,0,0,0,0,0,0],"id":124,"left_children":[1,3,5,-1,-1,-1,-1],"loss_changes":[7.567817E7,1.4392656E7,1.2313516E7,0E0,0E0,0E0,0E0],"parents":[2147483647,0,0,1,1,2,2],"right_children":[2,4,6,-1,-1,-1,-1],"split_conditions":[-4.9280983E-1,4.810464E-1,-2.041504E-1,-2.0483269E1,-3.7975633E0,1.14781626E-1,6.319812E0],"split_indices":[19,13,17,0,0,0,0],"split_type":[0,0,0,0,0,0,0],"sum_hessian":[1.52E2,2.5E1,1.27E2,1.7E1,8E0,6.4E1,6.3E1],"tree_param":{"num_deleted":"0","num_feature":"25","num_nodes":"7","size_leaf_vector":"1"}},{"base_weights":[6.457296E1,3.5206583E2,-1.4099734E3,7.5688367E0,5.8326866E-2,-1.5598751E1,1.0938345E1],"categories":[],"categories_nodes":[],"categories_segments":[],"categories_sizes":[],"default_left":[0,0,0,0,0,0,0],"id":125,"left_children":[1,3,5,-1,-1,-1,-1],"loss_changes":[6.493248E7,1.7936236E7,1.1089376E7,0E0,0E0,0E0,0E0],"parents":[2147483647,0,0,1,1,2,2],"right_children":[2,4,6,-1,-1,-1,-1],"split_conditions":[1.466834E0,-4.9004808E-1,3.1335251E0,7.5688367E0,5.8326866E-2,-1.5598751E1,1.0938345E1],"split_indices":[23,5,20,0,0,0,0],"split_type":[0,0,0,0,0,0,0],"sum_hessian":[1.51E2,1.27E2,2.4E1,5.8E1,6.9E1,2.3E1,1E0],"tree_param":{"num_deleted":"0","num_feature":"25","num_nodes":"7","size_leaf_vector":"1"}},{"base_weights":[-1.5455609E1,-1.3715159E3,3.3793365E2,-5.607765E0,-2.0061966E1,-4.7459194E-1,6.930119E0],"categories":[],"categories_nodes":[],"categories_segments":[],"categories_sizes":[],"default_left":[0,0,0,0,0,0,0],"id":126,"left_children":[1,3,5,-1,-1,-1,-1],"loss_changes":[7.186683E7,1.4826356E7,1.6317399E7,0E0,0E0,0E0,0E0],"parents":[2147483647,0,0,1,1,2,2],"right_children":[2,4,6,-1,-1,-1,-1],"split_conditions":[-4.9280983E-1,1.0369595E-1,-2.4427007E-1,-5.607765E0,-2.0061966E1,-4.7459194E-1,6.930119E0],"split_indices":[19,16,17,0,0,0,0],"split_type":[0,0,0,0,0,0,0],"sum_hessian":[1.48E2,3E1,1.18E2,1.4E1,1.6E1,5.7E1,6.1E1],"tree_param":{"num_deleted":"0","num_feature":"25","num_nodes":"7","size_leaf_vector":"1"}},{"base_weights":[-3.51891E1,2.343743E2,-1.3276858E3,6.1706243E0,-1.1011943E0,6.0725036E0,-1.7251617E1],"categories":[],"categories_nodes":[],"categories_segments":[],"categories_sizes":[],"default_left":[0,0,0,0,0,0,0],"id":127,"left_children":[1,3,5,-1,-1,-1,-1],"loss_changes":[5.0482184E7,1.588799E7,2.0274872E7,0E0,0E0,0E0,0E0],"parents":[2147483647,0,0,1,1,2,2],"right_children":[2,4,6,-1,-1,-1,-1],"split_conditions":[1.466834E0,1.4647421E-2,-5.2949363E-1,6.1706243E0,-1.1011943E0,6.0725036E0,-1.7251617E1],"split_indices":[23,18,4,0,0,0,0],"split_type":[0,0,0,0,0,0,0],"sum_hessian":[1.43E2,1.19E2,2.4E1,5.6E1,6.3E1,4E0,2E1],"tree_param":{"num_deleted":"0","num_feature":"25","num_nodes":"7","size_leaf_vector":"1"}},{"base_weights":[2.0262796E1,-1.4082908E3,3.6295355E2,-4.4414454E0,-1.8681566E1,1.9108074E1,2.5493844E0],"categories":[],"categories_nodes":[],"categories_segments":[],"categories_sizes":[],"default_left":[0,0,0,0,0,0,0],"id":128,"left_children":[1,3,5,-1,-1,-1,-1],"loss_changes":[7.590217E7,1.2471608E7,2.0411814E7,0E0,0E0,0E0,0E0],"parents":[2147483647,0,0,1,1,2,2],"right_children":[2,4,6,-1,-1,-1,-1],"split_conditions":[-4.9280983E-1,2.5539905E-1,-8.210505E-1,-4.4414454E0,-1.8681566E1,1.9108074E1,2.5493844E0],"split_indices":[19,17,3,0,0,0,0],"split_type":[0,0,0,0,0,0,0],"sum_hessian":[1.53E2,2.9E1,1.24E2,1E1,1.9E1,7E0,1.17E2],"tree_param":{"num_deleted":"0","num_feature":"25","num_nodes":"7","size_leaf_vector":"1"}},{"base_weights":[-5.690283E1,-1.4198269E3,2.7571652E2,-1.8246908E1,-1.2897265E0,1.3444131E1,1.0865053E0],"categories":[],"categories_nodes":[],"categories_segments":[],"categories_sizes":[],"default_left":[0,0,0,0,0,0,0],"id":129,"left_children":[1,3,5,-1,-1,-1,-1],"loss_changes":[6.7031704E7,1.4920652E7,2.110053E7,0E0,0E0,0E0,0E0],"parents":[2147483647,0,0,1,1,2,2],"right_children":[2,4,6,-1,-1,-1,-1],"split_conditions":[-4.9280983E-1,4.810464E-1,-1.1756351E0,-1.8246908E1,-1.2897265E0,1.3444131E1,1.0865053E0],"split_indices":[19,13,0,0,0,0,0],"split_type":[0,0,0,0,0,0,0],"sum_hessian":[1.46E2,2.8E1,1.18E2,2.1E1,7E0,1.5E1,1.03E2],"tree_param":{"num_deleted":"0","num_feature":"25","num_nodes":"7","size_leaf_vector":"1"}},{"base_weights":[4.7314888E1,-1.4112738E3,3.8725797E2,-1.8798757E-1,-1.7901854E1,-1.1287658E0,7.845715E0],"categories":[],"categories_nodes":[],"categories_segments":[],